<?xml version="1.0"?>
<opencv_storage>
<cascade>
  <stageType>BOOST</stageType>
  <featureType>HAAR</featureType>
  <height>24</height>
  <width>24</width>
  <stageParams>
    <boostType>GAB</boostType>
    <minHitRate>9.9500000476837158e-01</minHitRate>
    <maxFalseAlarm>5.0000000000000000e-01</maxFalseAlarm>
    <weightTrimRate>9.4999999999999996e-01</weightTrimRate>
    <maxDepth>1</maxDepth>
    <maxWeakCount>100</maxWeakCount></stageParams>
  <featureParams>
    <maxCatCount>0</maxCatCount>
    <featSize>1</featSize>
    <mode>BASIC</mode></featureParams>
  <stageNum>10</stageNum>
  <stages>
    <!-- stage 0 -->
    <_>
      <maxWeakCount>4</maxWeakCount>
      <stageThreshold>-1.3844192028045654e+00</stageThreshold>
      <weakClassifiers>
        <_>
          <internalNodes>
            0 -1 54 1.3635991141200066e-02</internalNodes>
          <leafValues>
            -7.2013652324676514e-01 6.8729639053344727e-01</leafValues></_>
        <_>
          <internalNodes>
            0 -1 15 -1.5445658937096596e-03</internalNodes>
          <leafValues>
            5.0030106306076050e-01 -8.7069809436798096e-01</leafValues></_>
        <_>
          <internalNodes>
            0 -1 5 1.5124971047043800e-02</internalNodes>
          <leafValues>
            -5.2431416511535645e-01 7.2761064767837524e-01</leafValues></_>
        <_>
          <internalNodes>
            0 -1 44 2.9845416429452598e-04</internalNodes>
          <leafValues>
            -6.4026957750320435e-01 5.0667369365692139e-01</leafValues></_></weakClassifiers></_>
    <!-- stage 1 -->
    <_>
      <maxWeakCount>6</maxWeakCount>
      <stageThreshold>-1.5600333213806152e+00</stageThreshold>
      <weakClassifiers>
        <_>
          <internalNodes>
            0 -1 8 2.1187882870435715e-02</internalNodes>
          <leafValues>
            -7.9186993837356567e-01 4.7027027606964111e-01</leafValues></_>
        <_>
          <internalNodes>
            0 -1 37 2.5340761989355087e-02</internalNodes>
          <leafValues>
            -6.3143658638000488e-01 5.8304083347320557e-01</leafValues></_>
        <_>
          <internalNodes>
            0 -1 13 -6.7779247183352709e-04</internalNodes>
          <leafValues>
            4.3118280172348022e-01 -7.4664473533630371e-01</leafValues></_>
        <_>
          <internalNodes>
            0 -1 20 -1.9144088029861450e-02</internalNodes>
          <leafValues>
            5.2595424652099609e-01 -4.9995872378349304e-01</leafValues></_>
        <_>
          <internalNodes>
            0 -1 29 -6.8245932925492525e-04</internalNodes>
          <leafValues>
            4.8757538199424744e-01 -6.2137842178344727e-01</leafValues></_>
        <_>
          <internalNodes>
            0 -1 12 6.4125224947929382e-02</internalNodes>
          <leafValues>
            -3.9964708685874939e-01 7.0534205436706543e-01</leafValues></_></weakClassifiers></_>
    <!-- stage 2 -->
    <_>
      <maxWeakCount>5</maxWeakCount>
      <stageThreshold>-1.3549575805664063e+00</stageThreshold>
      <weakClassifiers>
        <_>
          <internalNodes>
            0 -1 54 2.8366832062602043e-02</internalNodes>
          <leafValues>
            -8.0821919441223145e-01 3.3333334326744080e-01</leafValues></_>
        <_>
          <internalNodes>
            0 -1 6 4.6420551836490631e-02</internalNodes>
          <leafValues>
            -6.8182939291000366e-01 5.2255809307098389e-01</leafValues></_>
        <_>
          <internalNodes>
            0 -1 34 -8.6825629696249962e-03</internalNodes>
          <leafValues>
            4.3531784415245056e-01 -6.9504958391189575e-01</leafValues></_>
        <_>
          <internalNodes>
            0 -1 31 1.3646135812450666e-05</internalNodes>
          <leafValues>
            -7.9698282480239868e-01 3.7111008167266846e-01</leafValues></_>
        <_>
          <internalNodes>
            0 -1 45 3.6091008223593235e-04</internalNodes>
          <leafValues>
            -5.5912840366363525e-01 4.9675598740577698e-01</leafValues></_></weakClassifiers></_>
    <!-- stage 3 -->
    <_>
      <maxWeakCount>5</maxWeakCount>
      <stageThreshold>-1.0679690837860107e+00</stageThreshold>
      <weakClassifiers>
        <_>
          <internalNodes>
            0 -1 3 3.3895033597946167e-01</internalNodes>
          <leafValues>
            -7.3453998565673828e-01 6.3503646850585938e-01</leafValues></_>
        <_>
          <internalNodes>
            0 -1 18 -5.7294691214337945e-04</internalNodes>
          <leafValues>
            1.8157871067523956e-01 -9.2400199174880981e-01</leafValues></_>
        <_>
          <internalNodes>
            0 -1 25 -8.9465043856762350e-05</internalNodes>
          <leafValues>
            -9.0520465373992920e-01 1.7591865360736847e-01</leafValues></_>
        <_>
          <internalNodes>
            0 -1 33 -7.2087312582880259e-04</internalNodes>
          <leafValues>
            -9.8182344436645508e-01 1.8193280696868896e-01</leafValues></_>
        <_>
          <internalNodes>
            0 -1 38 -8.3729755715467036e-05</internalNodes>
          <leafValues>
            -8.2291769981384277e-01 2.3272140324115753e-01</leafValues></_></weakClassifiers></_>
    <!-- stage 4 -->
    <_>
      <maxWeakCount>7</maxWeakCount>
      <stageThreshold>-1.4640038013458252e+00</stageThreshold>
      <weakClassifiers>
        <_>
          <internalNodes>
            0 -1 0 2.6250326633453369e-01</internalNodes>
          <leafValues>
            -7.8965514898300171e-01 2.6363635063171387e-01</leafValues></_>
        <_>
          <internalNodes>
            0 -1 49 3.3583906479179859e-03</internalNodes>
          <leafValues>
            -5.8530527353286743e-01 3.7259465456008911e-01</leafValues></_>
        <_>
          <internalNodes>
            0 -1 52 2.8933640569448471e-03</internalNodes>
          <leafValues>
            -4.4824495911598206e-01 5.5058586597442627e-01</leafValues></_>
        <_>
          <internalNodes>
            0 -1 24 2.3499171948060393e-04</internalNodes>
          <leafValues>
            2.7307450771331787e-01 -7.0319795608520508e-01</leafValues></_>
        <_>
          <internalNodes>
            0 -1 40 9.7988015040755272e-03</internalNodes>
          <leafValues>
            -6.5040546655654907e-01 2.9380175471305847e-01</leafValues></_>
        <_>
          <internalNodes>
            0 -1 9 1.2565268203616142e-02</internalNodes>
          <leafValues>
            -4.7714555263519287e-01 4.6022072434425354e-01</leafValues></_>
        <_>
          <internalNodes>
            0 -1 30 6.3494092319160700e-04</internalNodes>
          <leafValues>
            2.6947093009948730e-01 -6.5770035982131958e-01</leafValues></_></weakClassifiers></_>
    <!-- stage 5 -->
    <_>
      <maxWeakCount>7</maxWeakCount>
      <stageThreshold>-1.2220267057418823e+00</stageThreshold>
      <weakClassifiers>
        <_>
          <internalNodes>
            0 -1 2 1.6482932865619659e-01</internalNodes>
          <leafValues>
            -7.3539519309997559e-01 1.2844036519527435e-01</leafValues></_>
        <_>
          <internalNodes>
            0 -1 44 3.9713431033305824e-04</internalNodes>
          <leafValues>
            -6.4264434576034546e-01 2.2741609811782837e-01</leafValues></_>
        <_>
          <internalNodes>
            0 -1 56 -1.6249798238277435e-02</internalNodes>
          <leafValues>
            4.2318168282508850e-01 -5.2346128225326538e-01</leafValues></_>
        <_>
          <internalNodes>
            0 -1 17 -5.4006441496312618e-04</internalNodes>
          <leafValues>
            3.3856716752052307e-01 -6.9582599401473999e-01</leafValues></_>
        <_>
          <internalNodes>
            0 -1 27 4.1041526128537953e-04</internalNodes>
          <leafValues>
            2.0799694955348969e-01 -9.3234181404113770e-01</leafValues></_>
        <_>
          <internalNodes>
            0 -1 27 -1.3066108804196119e-03</internalNodes>
          <leafValues>
            -8.5144639015197754e-01 1.8424656987190247e-01</leafValues></_>
        <_>
          <internalNodes>
            0 -1 58 4.6684575499966741e-04</internalNodes>
          <leafValues>
            2.1894171833992004e-01 -7.1772390604019165e-01</leafValues></_></weakClassifiers></_>
    <!-- stage 6 -->
    <_>
      <maxWeakCount>9</maxWeakCount>
      <stageThreshold>-1.3010110855102539e+00</stageThreshold>
      <weakClassifiers>
        <_>
          <internalNodes>
            0 -1 11 4.6165389940142632e-03</internalNodes>
          <leafValues>
            -7.3514431715011597e-01 1.5639810264110565e-01</leafValues></_>
        <_>
          <internalNodes>
            0 -1 28 -2.1331943571567535e-05</internalNodes>
          <leafValues>
            1.5426042675971985e-01 -7.3144650459289551e-01</leafValues></_>
        <_>
          <internalNodes>
            0 -1 10 9.2850737273693085e-03</internalNodes>
          <leafValues>
            -4.7503259778022766e-01 3.9535996317863464e-01</leafValues></_>
        <_>
          <internalNodes>
            0 -1 22 2.8340646531432867e-04</internalNodes>
          <leafValues>
            2.5834909081459045e-01 -9.8795551061630249e-01</leafValues></_>
        <_>
          <internalNodes>
            0 -1 39 -1.5130097046494484e-02</internalNodes>
          <leafValues>
            4.4023907184600830e-01 -4.5363977551460266e-01</leafValues></_>
        <_>
          <internalNodes>
            0 -1 32 -5.7103810831904411e-04</internalNodes>
          <leafValues>
            3.6530643701553345e-01 -5.1243728399276733e-01</leafValues></_>
        <_>
          <internalNodes>
            0 -1 21 5.6828130036592484e-03</internalNodes>
          <leafValues>
            2.1876598894596100e-01 -8.3268535137176514e-01</leafValues></_>
        <_>
          <internalNodes>
            0 -1 41 6.2389411032199860e-03</internalNodes>
          <leafValues>
            -2.8452831506729126e-01 7.6912671327590942e-01</leafValues></_>
        <_>
          <internalNodes>
            0 -1 43 5.2663139067590237e-03</internalNodes>
          <leafValues>
            -3.4199684858322144e-01 6.0789310932159424e-01</leafValues></_></weakClassifiers></_>
    <!-- stage 7 -->
    <_>
      <maxWeakCount>6</maxWeakCount>
      <stageThreshold>-1.5275003910064697e+00</stageThreshold>
      <weakClassifiers>
        <_>
          <internalNodes>
            0 -1 50 3.0812616460025311e-03</internalNodes>
          <leafValues>
            -7.0569622516632080e-01 2.7380952239036560e-01</leafValues></_>
        <_>
          <internalNodes>
            0 -1 53 4.1542155668139458e-03</internalNodes>
          <leafValues>
            -4.3620073795318604e-01 7.1580028533935547e-01</leafValues></_>
        <_>
          <internalNodes>
            0 -1 25 1.6351837984984741e-05</internalNodes>
          <leafValues>
            -7.7149742841720581e-01 3.3730834722518921e-01</leafValues></_>
        <_>
          <internalNodes>
            0 -1 57 -1.8690377473831177e-02</internalNodes>
          <leafValues>
            5.2475547790527344e-01 -3.9796906709671021e-01</leafValues></_>
        <_>
          <internalNodes>
            0 -1 4 3.3235219307243824e-03</internalNodes>
          <leafValues>
            -4.6429434418678284e-01 4.1886356472969055e-01</leafValues></_>
        <_>
          <internalNodes>
            0 -1 19 5.0138164078816772e-04</internalNodes>
          <leafValues>
            -6.6313368082046509e-01 2.6865163445472717e-01</leafValues></_></weakClassifiers></_>
    <!-- stage 8 -->
    <_>
      <maxWeakCount>5</maxWeakCount>
      <stageThreshold>-1.0268689393997192e+00</stageThreshold>
      <weakClassifiers>
        <_>
          <internalNodes>
            0 -1 48 1.2388452887535095e-02</internalNodes>
          <leafValues>
            -7.0114940404891968e-01 1.4136125147342682e-01</leafValues></_>
        <_>
          <internalNodes>
            0 -1 55 -1.5097048133611679e-02</internalNodes>
          <leafValues>
            3.7431636452674866e-01 -4.6703967452049255e-01</leafValues></_>
        <_>
          <internalNodes>
            0 -1 36 1.8478688434697688e-04</internalNodes>
          <leafValues>
            -6.5031725168228149e-01 2.9289257526397705e-01</leafValues></_>
        <_>
          <internalNodes>
            0 -1 42 -1.2689927592873573e-02</internalNodes>
          <leafValues>
            7.7165079116821289e-01 -2.4708271026611328e-01</leafValues></_>
        <_>
          <internalNodes>
            0 -1 16 7.3478538542985916e-03</internalNodes>
          <leafValues>
            2.3688744008541107e-01 -7.4584573507308960e-01</leafValues></_></weakClassifiers></_>
    <!-- stage 9 -->
    <_>
      <maxWeakCount>10</maxWeakCount>
      <stageThreshold>-1.7511534690856934e+00</stageThreshold>
      <weakClassifiers>
        <_>
          <internalNodes>
            0 -1 1 6.0834929347038269e-02</internalNodes>
          <leafValues>
            -7.2677594423294067e-01 -3.9840638637542725e-03</leafValues></_>
        <_>
          <internalNodes>
            0 -1 23 -1.7744101933203638e-04</internalNodes>
          <leafValues>
            1.4183209836483002e-01 -7.4620759487152100e-01</leafValues></_>
        <_>
          <internalNodes>
            0 -1 46 -3.3234197180718184e-03</internalNodes>
          <leafValues>
            3.5180976986885071e-01 -4.6193885803222656e-01</leafValues></_>
        <_>
          <internalNodes>
            0 -1 7 5.6065279990434647e-02</internalNodes>
          <leafValues>
            -4.9854069948196411e-01 3.2525444030761719e-01</leafValues></_>
        <_>
          <internalNodes>
            0 -1 26 -5.4678361630067229e-04</internalNodes>
          <leafValues>
            -8.5890823602676392e-01 1.6440485417842865e-01</leafValues></_>
        <_>
          <internalNodes>
            0 -1 35 -8.7668690830469131e-03</internalNodes>
          <leafValues>
            6.3322347402572632e-01 -2.5815033912658691e-01</leafValues></_>
        <_>
          <internalNodes>
            0 -1 51 1.1721573770046234e-02</internalNodes>
          <leafValues>
            -2.5083214044570923e-01 6.5562921762466431e-01</leafValues></_>
        <_>
          <internalNodes>
            0 -1 47 7.6673910953104496e-03</internalNodes>
          <leafValues>
            -2.6878410577774048e-01 5.3381133079528809e-01</leafValues></_>
        <_>
          <internalNodes>
            0 -1 14 -1.2068307842127979e-04</internalNodes>
          <leafValues>
            1.8696565926074982e-01 -8.8901293277740479e-01</leafValues></_>
        <_>
          <internalNodes>
            0 -1 59 -4.3864993494935334e-04</internalNodes>
          <leafValues>
            -6.2064933776855469e-01 2.2066611051559448e-01</leafValues></_></weakClassifiers></_></stages>
  <features>
    <_>
      <rects>
        <_>
          0 1 24 20 -1.</_>
        <_>
          8 1 8 20 3.</_></rects>
      <tilted>0</tilted></_>
    <_>
      <rects>
        <_>
          0 2 14 18 -1.</_>
        <_>
          0 2 7 9 2.</_>
        <_>
          7 11 7 9 2.</_></rects>
      <tilted>0</tilted></_>
    <_>
      <rects>
        <_>
          0 6 12 16 -1.</_>
        <_>
          6 6 6 16 2.</_></rects>
      <tilted>0</tilted></_>
    <_>
      <rects>
        <_>
          0 9 24 13 -1.</_>
        <_>
          8 9 8 13 3.</_></rects>
      <tilted>0</tilted></_>
    <_>
      <rects>
        <_>
          2 6 4 14 -1.</_>
        <_>
          4 6 2 14 2.</_></rects>
      <tilted>0</tilted></_>
    <_>
      <rects>
        <_>
          2 13 10 2 -1.</_>
        <_>
          7 13 5 2 2.</_></rects>
      <tilted>0</tilted></_>
    <_>
      <rects>
        <_>
          2 13 10 8 -1.</_>
        <_>
          7 13 5 8 2.</_></rects>
      <tilted>0</tilted></_>
    <_>
      <rects>
        <_>
          3 5 12 13 -1.</_>
        <_>
          7 5 4 13 3.</_></rects>
      <tilted>0</tilted></_>
    <_>
      <rects>
        <_>
          4 13 6 4 -1.</_>
        <_>
          7 13 3 4 2.</_></rects>
      <tilted>0</tilted></_>
    <_>
      <rects>
        <_>
          5 9 6 6 -1.</_>
        <_>
          7 9 2 6 3.</_></rects>
      <tilted>0</tilted></_>
    <_>
      <rects>
        <_>
          5 9 12 6 -1.</_>
        <_>
          5 9 6 3 2.</_>
        <_>
          11 12 6 3 2.</_></rects>
      <tilted>0</tilted></_>
    <_>
      <rects>
        <_>
          5 14 4 1 -1.</_>
        <_>
          7 14 2 1 2.</_></rects>
      <tilted>0</tilted></_>
    <_>
      <rects>
        <_>
          6 1 4 21 -1.</_>
        <_>
          6 8 4 7 3.</_></rects>
      <tilted>0</tilted></_>
    <_>
      <rects>
        <_>
          8 10 2 3 -1.</_>
        <_>
          9 10 1 3 2.</_></rects>
      <tilted>0</tilted></_>
    <_>
      <rects>
        <_>
          8 10 4 3 -1.</_>
        <_>
          10 10 2 3 2.</_></rects>
      <tilted>0</tilted></_>
    <_>
      <rects>
        <_>
          8 10 4 5 -1.</_>
        <_>
          10 10 2 5 2.</_></rects>
      <tilted>0</tilted></_>
    <_>
      <rects>
        <_>
          8 10 9 10 -1.</_>
        <_>
          8 15 9 5 2.</_></rects>
      <tilted>0</tilted></_>
    <_>
      <rects>
        <_>
          8 11 2 3 -1.</_>
        <_>
          9 11 1 3 2.</_></rects>
      <tilted>0</tilted></_>
    <_>
      <rects>
        <_>
          8 12 4 2 -1.</_>
        <_>
          10 12 2 2 2.</_></rects>
      <tilted>0</tilted></_>
    <_>
      <rects>
        <_>
          8 16 6 2 -1.</_>
        <_>
          8 16 3 1 2.</_>
        <_>
          11 17 3 1 2.</_></rects>
      <tilted>0</tilted></_>
    <_>
      <rects>
        <_>
          8 18 10 6 -1.</_>
        <_>
          8 21 10 3 2.</_></rects>
      <tilted>0</tilted></_>
    <_>
      <rects>
        <_>
          9 10 4 4 -1.</_>
        <_>
          9 12 4 2 2.</_></rects>
      <tilted>0</tilted></_>
    <_>
      <rects>
        <_>
          9 12 4 2 -1.</_>
        <_>
          11 12 2 2 2.</_></rects>
      <tilted>0</tilted></_>
    <_>
      <rects>
        <_>
          9 14 2 2 -1.</_>
        <_>
          10 14 1 2 2.</_></rects>
      <tilted>0</tilted></_>
    <_>
      <rects>
        <_>
          9 16 1 3 -1.</_>
        <_>
          9 17 1 1 3.</_></rects>
      <tilted>0</tilted></_>
    <_>
      <rects>
        <_>
          10 12 1 2 -1.</_>
        <_>
          10 13 1 1 2.</_></rects>
      <tilted>0</tilted></_>
    <_>
      <rects>
        <_>
          10 12 3 1 -1.</_>
        <_>
          11 12 1 1 3.</_></rects>
      <tilted>0</tilted></_>
    <_>
      <rects>
        <_>
          10 12 2 2 -1.</_>
        <_>
          11 12 1 2 2.</_></rects>
      <tilted>0</tilted></_>
    <_>
      <rects>
        <_>
          10 12 2 4 -1.</_>
        <_>
          10 12 1 2 2.</_>
        <_>
          11 14 1 2 2.</_></rects>
      <tilted>0</tilted></_>
    <_>
      <rects>
        <_>
          10 14 2 4 -1.</_>
        <_>
          11 14 1 4 2.</_></rects>
      <tilted>0</tilted></_>
    <_>
      <rects>
        <_>
          10 14 3 3 -1.</_>
        <_>
          10 15 3 1 3.</_></rects>
      <tilted>0</tilted></_>
    <_>
      <rects>
        <_>
          11 10 1 4 -1.</_>
        <_>
          11 12 1 2 2.</_></rects>
      <tilted>0</tilted></_>
    <_>
      <rects>
        <_>
          11 10 2 6 -1.</_>
        <_>
          11 10 1 3 2.</_>
        <_>
          12 13 1 3 2.</_></rects>
      <tilted>0</tilted></_>
    <_>
      <rects>
        <_>
          11 11 1 3 -1.</_>
        <_>
          11 12 1 1 3.</_></rects>
      <tilted>0</tilted></_>
    <_>
      <rects>
        <_>
          11 11 6 10 -1.</_>
        <_>
          11 11 3 5 2.</_>
        <_>
          14 16 3 5 2.</_></rects>
      <tilted>0</tilted></_>
    <_>
      <rects>
        <_>
          11 12 6 4 -1.</_>
        <_>
          11 12 3 2 2.</_>
        <_>
          14 14 3 2 2.</_></rects>
      <tilted>0</tilted></_>
    <_>
      <rects>
        <_>
          11 17 3 2 -1.</_>
        <_>
          11 18 3 1 2.</_></rects>
      <tilted>0</tilted></_>
    <_>
      <rects>
        <_>
          12 10 9 6 -1.</_>
        <_>
          15 10 3 6 3.</_></rects>
      <tilted>0</tilted></_>
    <_>
      <rects>
        <_>
          12 16 1 2 -1.</_>
        <_>
          12 17 1 1 2.</_></rects>
      <tilted>0</tilted></_>
    <_>
      <rects>
        <_>
          12 17 5 6 -1.</_>
        <_>
          12 20 5 3 2.</_></rects>
      <tilted>0</tilted></_>
    <_>
      <rects>
        <_>
          13 0 5 24 -1.</_>
        <_>
          13 8 5 8 3.</_></rects>
      <tilted>0</tilted></_>
    <_>
      <rects>
        <_>
          13 10 5 3 -1.</_>
        <_>
          13 11 5 1 3.</_></rects>
      <tilted>0</tilted></_>
    <_>
      <rects>
        <_>
          13 10 5 6 -1.</_>
        <_>
          13 12 5 2 3.</_></rects>
      <tilted>0</tilted></_>
    <_>
      <rects>
        <_>
          13 12 5 3 -1.</_>
        <_>
          13 13 5 1 3.</_></rects>
      <tilted>0</tilted></_>
    <_>
      <rects>
        <_>
          13 16 3 2 -1.</_>
        <_>
          13 17 3 1 2.</_></rects>
      <tilted>0</tilted></_>
    <_>
      <rects>
        <_>
          13 17 2 2 -1.</_>
        <_>
          13 18 2 1 2.</_></rects>
      <tilted>0</tilted></_>
    <_>
      <rects>
        <_>
          14 8 4 12 -1.</_>
        <_>
          14 8 2 6 2.</_>
        <_>
          16 14 2 6 2.</_></rects>
      <tilted>0</tilted></_>
    <_>
      <rects>
        <_>
          14 8 3 4 -1.</_>
        <_>
          14 10 3 2 2.</_></rects>
      <tilted>0</tilted></_>
    <_>
      <rects>
        <_>
          14 10 4 4 -1.</_>
        <_>
          14 12 4 2 2.</_></rects>
      <tilted>0</tilted></_>
    <_>
      <rects>
        <_>
          14 11 3 5 -1.</_>
        <_>
          15 11 1 5 3.</_></rects>
      <tilted>0</tilted></_>
    <_>
      <rects>
        <_>
          14 11 3 3 -1.</_>
        <_>
          14 12 3 1 3.</_></rects>
      <tilted>0</tilted></_>
    <_>
      <rects>
        <_>
          14 11 4 4 -1.</_>
        <_>
          14 13 4 2 2.</_></rects>
      <tilted>0</tilted></_>
    <_>
      <rects>
        <_>
          14 12 3 3 -1.</_>
        <_>
          14 13 3 1 3.</_></rects>
      <tilted>0</tilted></_>
    <_>
      <rects>
        <_>
          14 13 3 3 -1.</_>
        <_>
          14 14 3 1 3.</_></rects>
      <tilted>0</tilted></_>
    <_>
      <rects>
        <_>
          15 6 2 15 -1.</_>
        <_>
          15 11 2 5 3.</_></rects>
      <tilted>0</tilted></_>
    <_>
      <rects>
        <_>
          15 10 4 9 -1.</_>
        <_>
          17 10 2 9 2.</_></rects>
      <tilted>0</tilted></_>
    <_>
      <rects>
        <_>
          15 11 2 12 -1.</_>
        <_>
          15 17 2 6 2.</_></rects>
      <tilted>0</tilted></_>
    <_>
      <rects>
        <_>
          16 8 4 12 -1.</_>
        <_>
          18 8 2 12 2.</_></rects>
      <tilted>0</tilted></_>
    <_>
      <rects>
        <_>
          19 17 2 2 -1.</_>
        <_>
          20 17 1 2 2.</_></rects>
      <tilted>0</tilted></_>
    <_>
      <rects>
        <_>
          21 7 2 6 -1.</_>
        <_>
          21 7 1 3 2.</_>
        <_>
          22 10 1 3 2.</_></rects>
      <tilted>0</tilted></_></features></cascade>
</opencv_storage>
