<?xml version="1.0"?>
<opencv_storage>
<cascade>
  <stageType>BOOST</stageType>
  <featureType>HAAR</featureType>
  <height>40</height>
  <width>40</width>
  <stageParams>
    <boostType>GAB</boostType>
    <minHitRate>9.9900001287460327e-01</minHitRate>
    <maxFalseAlarm>5.0000000745058060e-02</maxFalseAlarm>
    <weightTrimRate>9.4999999999999996e-01</weightTrimRate>
    <maxDepth>1</maxDepth>
    <maxWeakCount>100</maxWeakCount></stageParams>
  <featureParams>
    <maxCatCount>0</maxCatCount>
    <featSize>1</featSize>
    <mode>ALL</mode></featureParams>
  <stageNum>10</stageNum>
  <stages>
    <!-- stage 0 -->
    <_>
      <maxWeakCount>2</maxWeakCount>
      <stageThreshold>1.5780409798026085e-02</stageThreshold>
      <weakClassifiers>
        <_>
          <internalNodes>
            0 -1 3 -2.4656763343955390e-05</internalNodes>
          <leafValues>
            1. -9.8019802570343018e-01</leafValues></_>
        <_>
          <internalNodes>
            0 -1 1 -1.8743440508842468e-01</internalNodes>
          <leafValues>
            9.9597841501235962e-01 -1.</leafValues></_></weakClassifiers></_>
    <!-- stage 1 -->
    <_>
      <maxWeakCount>6</maxWeakCount>
      <stageThreshold>1.0215293616056442e-01</stageThreshold>
      <weakClassifiers>
        <_>
          <internalNodes>
            0 -1 61 3.9973333477973938e-03</internalNodes>
          <leafValues>
            -9.4805192947387695e-01 9.0439772605895996e-01</leafValues></_>
        <_>
          <internalNodes>
            0 -1 71 -6.2624967540614307e-06</internalNodes>
          <leafValues>
            8.3031696081161499e-01 -8.3197551965713501e-01</leafValues></_>
        <_>
          <internalNodes>
            0 -1 23 2.7561068418435752e-04</internalNodes>
          <leafValues>
            -9.3316727876663208e-01 7.7430856227874756e-01</leafValues></_>
        <_>
          <internalNodes>
            0 -1 15 -1.8365755749982782e-05</internalNodes>
          <leafValues>
            8.5811704397201538e-01 -7.9688453674316406e-01</leafValues></_>
        <_>
          <internalNodes>
            0 -1 47 -2.9757939046248794e-06</internalNodes>
          <leafValues>
            9.5863735675811768e-01 -5.7053494453430176e-01</leafValues></_>
        <_>
          <internalNodes>
            0 -1 18 -9.0527018983266316e-06</internalNodes>
          <leafValues>
            6.6802495718002319e-01 -8.8527107238769531e-01</leafValues></_></weakClassifiers></_>
    <!-- stage 2 -->
    <_>
      <maxWeakCount>9</maxWeakCount>
      <stageThreshold>5.3428959846496582e-01</stageThreshold>
      <weakClassifiers>
        <_>
          <internalNodes>
            0 -1 46 3.6467332392930984e-05</internalNodes>
          <leafValues>
            -8.6666667461395264e-01 8.3703702688217163e-01</leafValues></_>
        <_>
          <internalNodes>
            0 -1 59 -9.2832269729115069e-06</internalNodes>
          <leafValues>
            6.3847714662551880e-01 -9.1329342126846313e-01</leafValues></_>
        <_>
          <internalNodes>
            0 -1 13 -3.0198823424143484e-06</internalNodes>
          <leafValues>
            7.3693054914474487e-01 -6.1317008733749390e-01</leafValues></_>
        <_>
          <internalNodes>
            0 -1 32 -2.9546577025030274e-06</internalNodes>
          <leafValues>
            6.9153505563735962e-01 -6.7396658658981323e-01</leafValues></_>
        <_>
          <internalNodes>
            0 -1 53 -2.9834702672815183e-06</internalNodes>
          <leafValues>
            6.4570564031600952e-01 -7.3775589466094971e-01</leafValues></_>
        <_>
          <internalNodes>
            0 -1 10 3.1539543670078274e-06</internalNodes>
          <leafValues>
            -8.0944907665252686e-01 6.1321610212326050e-01</leafValues></_>
        <_>
          <internalNodes>
            0 -1 20 -2.9696652745769825e-06</internalNodes>
          <leafValues>
            6.5804725885391235e-01 -6.6520607471466064e-01</leafValues></_>
        <_>
          <internalNodes>
            0 -1 62 -9.1743013399536721e-06</internalNodes>
          <leafValues>
            6.6031801700592041e-01 -7.1951878070831299e-01</leafValues></_>
        <_>
          <internalNodes>
            0 -1 55 -3.0400958621612517e-06</internalNodes>
          <leafValues>
            7.9558211565017700e-01 -6.5011358261108398e-01</leafValues></_></weakClassifiers></_>
    <!-- stage 3 -->
    <_>
      <maxWeakCount>8</maxWeakCount>
      <stageThreshold>5.7664787769317627e-01</stageThreshold>
      <weakClassifiers>
        <_>
          <internalNodes>
            0 -1 40 -2.6153650134801865e-02</internalNodes>
          <leafValues>
            -1. 7.9533213376998901e-01</leafValues></_>
        <_>
          <internalNodes>
            0 -1 12 2.7608445379883051e-03</internalNodes>
          <leafValues>
            -2.5792571902275085e-01 1.</leafValues></_>
        <_>
          <internalNodes>
            0 -1 25 -3.0089195206528530e-06</internalNodes>
          <leafValues>
            5.0678437948226929e-01 -7.6564407348632813e-01</leafValues></_>
        <_>
          <internalNodes>
            0 -1 26 -7.0328032961697318e-06</internalNodes>
          <leafValues>
            6.3335901498794556e-01 -6.1448687314987183e-01</leafValues></_>
        <_>
          <internalNodes>
            0 -1 28 8.3636853378266096e-04</internalNodes>
          <leafValues>
            -6.0093605518341064e-01 5.9998100996017456e-01</leafValues></_>
        <_>
          <internalNodes>
            0 -1 37 -1.2019544556096662e-05</internalNodes>
          <leafValues>
            7.1745288372039795e-01 -5.6522655487060547e-01</leafValues></_>
        <_>
          <internalNodes>
            0 -1 69 6.5395570345572196e-06</internalNodes>
          <leafValues>
            -5.3161728382110596e-01 7.6663732528686523e-01</leafValues></_>
        <_>
          <internalNodes>
            0 -1 49 -1.2006334727630019e-03</internalNodes>
          <leafValues>
            6.0621315240859985e-01 -6.0403907299041748e-01</leafValues></_></weakClassifiers></_>
    <!-- stage 4 -->
    <_>
      <maxWeakCount>10</maxWeakCount>
      <stageThreshold>-4.0365610271692276e-02</stageThreshold>
      <weakClassifiers>
        <_>
          <internalNodes>
            0 -1 44 -3.5206681786803529e-05</internalNodes>
          <leafValues>
            7.7619892358779907e-01 -1.</leafValues></_>
        <_>
          <internalNodes>
            0 -1 7 2.8404453769326210e-03</internalNodes>
          <leafValues>
            -2.5991654396057129e-01 9.7161132097244263e-01</leafValues></_>
        <_>
          <internalNodes>
            0 -1 31 -2.9696652745769825e-06</internalNodes>
          <leafValues>
            6.9357329607009888e-01 -4.5949268341064453e-01</leafValues></_>
        <_>
          <internalNodes>
            0 -1 43 -6.7706114350585267e-06</internalNodes>
          <leafValues>
            8.5954844951629639e-01 -4.8046308755874634e-01</leafValues></_>
        <_>
          <internalNodes>
            0 -1 16 -3.0777960091654677e-06</internalNodes>
          <leafValues>
            8.0366295576095581e-01 -4.3668791651725769e-01</leafValues></_>
        <_>
          <internalNodes>
            0 -1 39 -6.0742604546248913e-06</internalNodes>
          <leafValues>
            7.3165613412857056e-01 -5.5915355682373047e-01</leafValues></_>
        <_>
          <internalNodes>
            0 -1 54 -3.0805322239757515e-06</internalNodes>
          <leafValues>
            6.3856273889541626e-01 -6.0395735502243042e-01</leafValues></_>
        <_>
          <internalNodes>
            0 -1 56 9.9040853456244804e-06</internalNodes>
          <leafValues>
            -4.9387648701667786e-01 6.9371277093887329e-01</leafValues></_>
        <_>
          <internalNodes>
            0 -1 27 2.9195794013503473e-06</internalNodes>
          <leafValues>
            -5.5002248287200928e-01 6.4995604753494263e-01</leafValues></_>
        <_>
          <internalNodes>
            0 -1 38 -3.0358664844243322e-06</internalNodes>
          <leafValues>
            7.8559261560440063e-01 -5.5400055646896362e-01</leafValues></_></weakClassifiers></_>
    <!-- stage 5 -->
    <_>
      <maxWeakCount>8</maxWeakCount>
      <stageThreshold>5.9444034099578857e-01</stageThreshold>
      <weakClassifiers>
        <_>
          <internalNodes>
            0 -1 4 -3.2669328153133392e-02</internalNodes>
          <leafValues>
            -7.4285715818405151e-01 8.5283017158508301e-01</leafValues></_>
        <_>
          <internalNodes>
            0 -1 9 -1.1133824009448290e-03</internalNodes>
          <leafValues>
            9.1950863599777222e-01 -3.1155887246131897e-01</leafValues></_>
        <_>
          <internalNodes>
            0 -1 67 -1.7473762854933739e-03</internalNodes>
          <leafValues>
            -7.4575221538543701e-01 6.4648759365081787e-01</leafValues></_>
        <_>
          <internalNodes>
            0 -1 17 -1.8170756101608276e-01</internalNodes>
          <leafValues>
            8.1313449144363403e-01 -5.6529939174652100e-01</leafValues></_>
        <_>
          <internalNodes>
            0 -1 64 -1.8400285625830293e-05</internalNodes>
          <leafValues>
            5.0150370597839355e-01 -7.3751497268676758e-01</leafValues></_>
        <_>
          <internalNodes>
            0 -1 0 1.8227472537546419e-05</internalNodes>
          <leafValues>
            -4.9048507213592529e-01 8.9877110719680786e-01</leafValues></_>
        <_>
          <internalNodes>
            0 -1 72 1.2559598872030620e-05</internalNodes>
          <leafValues>
            -3.0958777666091919e-01 8.8275110721588135e-01</leafValues></_>
        <_>
          <internalNodes>
            0 -1 70 -9.7141164587810636e-05</internalNodes>
          <leafValues>
            -8.2989907264709473e-01 4.7840213775634766e-01</leafValues></_></weakClassifiers></_>
    <!-- stage 6 -->
    <_>
      <maxWeakCount>8</maxWeakCount>
      <stageThreshold>7.1998053789138794e-01</stageThreshold>
      <weakClassifiers>
        <_>
          <internalNodes>
            0 -1 34 -1.4676434511784464e-04</internalNodes>
          <leafValues>
            7.7224200963973999e-01 -8.9473682641983032e-01</leafValues></_>
        <_>
          <internalNodes>
            0 -1 42 -2.9934431040601339e-06</internalNodes>
          <leafValues>
            6.9215184450149536e-01 -6.5455758571624756e-01</leafValues></_>
        <_>
          <internalNodes>
            0 -1 22 -6.1834934967919253e-06</internalNodes>
          <leafValues>
            7.4985432624816895e-01 -5.3643894195556641e-01</leafValues></_>
        <_>
          <internalNodes>
            0 -1 29 -2.9301288577698870e-06</internalNodes>
          <leafValues>
            8.2142597436904907e-01 -4.4480848312377930e-01</leafValues></_>
        <_>
          <internalNodes>
            0 -1 66 2.9195794013503473e-06</internalNodes>
          <leafValues>
            -5.2218437194824219e-01 6.9444054365158081e-01</leafValues></_>
        <_>
          <internalNodes>
            0 -1 58 -2.9193345199018950e-06</internalNodes>
          <leafValues>
            7.8837990760803223e-01 -4.3249347805976868e-01</leafValues></_>
        <_>
          <internalNodes>
            0 -1 48 -3.0809715099167079e-06</internalNodes>
          <leafValues>
            5.3863054513931274e-01 -7.3845684528350830e-01</leafValues></_>
        <_>
          <internalNodes>
            0 -1 11 -1.1984439879597630e-05</internalNodes>
          <leafValues>
            7.8028154373168945e-01 -4.8326855897903442e-01</leafValues></_></weakClassifiers></_>
    <!-- stage 7 -->
    <_>
      <maxWeakCount>8</maxWeakCount>
      <stageThreshold>7.8199303150177002e-01</stageThreshold>
      <weakClassifiers>
        <_>
          <internalNodes>
            0 -1 36 -2.4821574334055185e-03</internalNodes>
          <leafValues>
            -9.4871795177459717e-01 7.7896612882614136e-01</leafValues></_>
        <_>
          <internalNodes>
            0 -1 45 -3.0718329071532935e-06</internalNodes>
          <leafValues>
            7.5421476364135742e-01 -5.6858861446380615e-01</leafValues></_>
        <_>
          <internalNodes>
            0 -1 60 -3.0599096589867258e-06</internalNodes>
          <leafValues>
            7.3066723346710205e-01 -6.2366122007369995e-01</leafValues></_>
        <_>
          <internalNodes>
            0 -1 33 -2.9307225304364692e-06</internalNodes>
          <leafValues>
            8.8936412334442139e-01 -4.1329464316368103e-01</leafValues></_>
        <_>
          <internalNodes>
            0 -1 57 6.4541277424723376e-06</internalNodes>
          <leafValues>
            -6.8134987354278564e-01 5.1102691888809204e-01</leafValues></_>
        <_>
          <internalNodes>
            0 -1 68 2.9961099698994076e-06</internalNodes>
          <leafValues>
            -5.2528649568557739e-01 7.7466994524002075e-01</leafValues></_>
        <_>
          <internalNodes>
            0 -1 2 -4.1621148586273193e-01</internalNodes>
          <leafValues>
            7.7226275205612183e-01 -6.0232728719711304e-01</leafValues></_>
        <_>
          <internalNodes>
            0 -1 65 1.3291835784912109e-05</internalNodes>
          <leafValues>
            -3.6381515860557556e-01 9.0235489606857300e-01</leafValues></_></weakClassifiers></_>
    <!-- stage 8 -->
    <_>
      <maxWeakCount>7</maxWeakCount>
      <stageThreshold>5.9705680608749390e-01</stageThreshold>
      <weakClassifiers>
        <_>
          <internalNodes>
            0 -1 6 -1.2813566718250513e-03</internalNodes>
          <leafValues>
            -1. 8.0831825733184814e-01</leafValues></_>
        <_>
          <internalNodes>
            0 -1 30 -3.0358664844243322e-06</internalNodes>
          <leafValues>
            7.8540521860122681e-01 -4.5555970072746277e-01</leafValues></_>
        <_>
          <internalNodes>
            0 -1 63 3.1612271413905546e-06</internalNodes>
          <leafValues>
            -8.2270807027816772e-01 5.1945072412490845e-01</leafValues></_>
        <_>
          <internalNodes>
            0 -1 50 3.0511566819768632e-06</internalNodes>
          <leafValues>
            -7.0046621561050415e-01 5.6964063644409180e-01</leafValues></_>
        <_>
          <internalNodes>
            0 -1 21 -9.7684015054255724e-04</internalNodes>
          <leafValues>
            -9.2557770013809204e-01 4.2697983980178833e-01</leafValues></_>
        <_>
          <internalNodes>
            0 -1 51 -2.9736693250015378e-06</internalNodes>
          <leafValues>
            6.7707145214080811e-01 -6.4795953035354614e-01</leafValues></_>
        <_>
          <internalNodes>
            0 -1 14 -3.0383212106244173e-06</internalNodes>
          <leafValues>
            9.3254518508911133e-01 -5.1222079992294312e-01</leafValues></_></weakClassifiers></_>
    <!-- stage 9 -->
    <_>
      <maxWeakCount>7</maxWeakCount>
      <stageThreshold>4.8514282703399658e-01</stageThreshold>
      <weakClassifiers>
        <_>
          <internalNodes>
            0 -1 35 -3.7948470562696457e-03</internalNodes>
          <leafValues>
            -9.3103450536727905e-01 8.3763837814331055e-01</leafValues></_>
        <_>
          <internalNodes>
            0 -1 8 -1.2581541668623686e-03</internalNodes>
          <leafValues>
            -8.7018418312072754e-01 6.6848695278167725e-01</leafValues></_>
        <_>
          <internalNodes>
            0 -1 5 -7.8198961913585663e-02</internalNodes>
          <leafValues>
            6.5150892734527588e-01 -6.5017908811569214e-01</leafValues></_>
        <_>
          <internalNodes>
            0 -1 19 -2.9301288577698870e-06</internalNodes>
          <leafValues>
            6.9432675838470459e-01 -6.0320031642913818e-01</leafValues></_>
        <_>
          <internalNodes>
            0 -1 52 -3.0952585348131834e-06</internalNodes>
          <leafValues>
            5.8523893356323242e-01 -7.2803431749343872e-01</leafValues></_>
        <_>
          <internalNodes>
            0 -1 41 -2.5591562734916806e-04</internalNodes>
          <leafValues>
            6.8319690227508545e-01 -7.1098804473876953e-01</leafValues></_>
        <_>
          <internalNodes>
            0 -1 24 -2.2532183720613830e-05</internalNodes>
          <leafValues>
            6.1087530851364136e-01 -7.4485367536544800e-01</leafValues></_></weakClassifiers></_></stages>
  <features>
    <_>
      <rects>
        <_>
          0 14 2 18 -1.</_>
        <_>
          0 20 2 6 3.</_></rects>
      <tilted>0</tilted></_>
    <_>
      <rects>
        <_>
          0 15 36 24 -1.</_>
        <_>
          12 23 12 8 9.</_></rects>
      <tilted>0</tilted></_>
    <_>
      <rects>
        <_>
          0 16 30 24 -1.</_>
        <_>
          10 24 10 8 9.</_></rects>
      <tilted>0</tilted></_>
    <_>
      <rects>
        <_>
          0 23 20 1 -1.</_>
        <_>
          10 23 10 1 2.</_></rects>
      <tilted>0</tilted></_>
    <_>
      <rects>
        <_>
          1 0 29 28 -1.</_>
        <_>
          1 7 29 14 2.</_></rects>
      <tilted>0</tilted></_>
    <_>
      <rects>
        <_>
          3 25 33 6 -1.</_>
        <_>
          14 27 11 2 9.</_></rects>
      <tilted>0</tilted></_>
    <_>
      <rects>
        <_>
          3 27 13 3 -1.</_>
        <_>
          3 28 13 1 3.</_></rects>
      <tilted>0</tilted></_>
    <_>
      <rects>
        <_>
          3 38 27 2 -1.</_>
        <_>
          3 39 27 1 2.</_></rects>
      <tilted>0</tilted></_>
    <_>
      <rects>
        <_>
          4 9 17 4 -1.</_>
        <_>
          4 10 17 2 2.</_></rects>
      <tilted>0</tilted></_>
    <_>
      <rects>
        <_>
          4 36 34 4 -1.</_>
        <_>
          4 37 34 2 2.</_></rects>
      <tilted>0</tilted></_>
    <_>
      <rects>
        <_>
          5 38 15 2 -1.</_>
        <_>
          5 39 15 1 2.</_></rects>
      <tilted>0</tilted></_>
    <_>
      <rects>
        <_>
          6 31 5 4 -1.</_>
        <_>
          5 32 5 2 2.</_></rects>
      <tilted>1</tilted></_>
    <_>
      <rects>
        <_>
          6 38 26 2 -1.</_>
        <_>
          6 39 26 1 2.</_></rects>
      <tilted>0</tilted></_>
    <_>
      <rects>
        <_>
          7 19 2 7 -1.</_>
        <_>
          8 19 1 7 2.</_></rects>
      <tilted>0</tilted></_>
    <_>
      <rects>
        <_>
          8 9 8 2 -1.</_>
        <_>
          8 10 8 1 2.</_></rects>
      <tilted>0</tilted></_>
    <_>
      <rects>
        <_>
          8 17 12 2 -1.</_>
        <_>
          14 17 6 2 2.</_></rects>
      <tilted>0</tilted></_>
    <_>
      <rects>
        <_>
          8 20 1 4 -1.</_>
        <_>
          8 22 1 2 2.</_></rects>
      <tilted>0</tilted></_>
    <_>
      <rects>
        <_>
          9 13 21 21 -1.</_>
        <_>
          16 20 7 7 9.</_></rects>
      <tilted>0</tilted></_>
    <_>
      <rects>
        <_>
          9 17 10 4 -1.</_>
        <_>
          9 19 10 2 2.</_></rects>
      <tilted>0</tilted></_>
    <_>
      <rects>
        <_>
          9 19 2 3 -1.</_>
        <_>
          10 19 1 3 2.</_></rects>
      <tilted>0</tilted></_>
    <_>
      <rects>
        <_>
          9 20 4 1 -1.</_>
        <_>
          11 20 2 1 2.</_></rects>
      <tilted>0</tilted></_>
    <_>
      <rects>
        <_>
          9 31 20 3 -1.</_>
        <_>
          9 32 20 1 3.</_></rects>
      <tilted>0</tilted></_>
    <_>
      <rects>
        <_>
          9 35 3 2 -1.</_>
        <_>
          9 35 3 1 2.</_></rects>
      <tilted>1</tilted></_>
    <_>
      <rects>
        <_>
          9 38 21 2 -1.</_>
        <_>
          9 39 21 1 2.</_></rects>
      <tilted>0</tilted></_>
    <_>
      <rects>
        <_>
          10 5 16 2 -1.</_>
        <_>
          10 6 16 1 2.</_></rects>
      <tilted>0</tilted></_>
    <_>
      <rects>
        <_>
          10 27 16 1 -1.</_>
        <_>
          14 27 8 1 2.</_></rects>
      <tilted>0</tilted></_>
    <_>
      <rects>
        <_>
          11 17 1 8 -1.</_>
        <_>
          11 17 1 4 2.</_></rects>
      <tilted>1</tilted></_>
    <_>
      <rects>
        <_>
          11 19 2 1 -1.</_>
        <_>
          11 19 1 1 2.</_></rects>
      <tilted>1</tilted></_>
    <_>
      <rects>
        <_>
          11 38 27 2 -1.</_>
        <_>
          11 39 27 1 2.</_></rects>
      <tilted>0</tilted></_>
    <_>
      <rects>
        <_>
          12 3 7 2 -1.</_>
        <_>
          12 4 7 1 2.</_></rects>
      <tilted>0</tilted></_>
    <_>
      <rects>
        <_>
          13 13 5 2 -1.</_>
        <_>
          13 14 5 1 2.</_></rects>
      <tilted>0</tilted></_>
    <_>
      <rects>
        <_>
          13 14 3 2 -1.</_>
        <_>
          13 15 3 1 2.</_></rects>
      <tilted>0</tilted></_>
    <_>
      <rects>
        <_>
          14 6 13 2 -1.</_>
        <_>
          14 7 13 1 2.</_></rects>
      <tilted>0</tilted></_>
    <_>
      <rects>
        <_>
          14 12 2 2 -1.</_>
        <_>
          14 13 2 1 2.</_></rects>
      <tilted>0</tilted></_>
    <_>
      <rects>
        <_>
          14 15 12 3 -1.</_>
        <_>
          17 18 6 3 2.</_></rects>
      <tilted>1</tilted></_>
    <_>
      <rects>
        <_>
          14 30 26 6 -1.</_>
        <_>
          14 32 26 2 3.</_></rects>
      <tilted>0</tilted></_>
    <_>
      <rects>
        <_>
          14 32 15 6 -1.</_>
        <_>
          14 34 15 2 3.</_></rects>
      <tilted>0</tilted></_>
    <_>
      <rects>
        <_>
          15 9 3 2 -1.</_>
        <_>
          15 10 3 1 2.</_></rects>
      <tilted>0</tilted></_>
    <_>
      <rects>
        <_>
          15 18 3 5 -1.</_>
        <_>
          16 18 1 5 3.</_></rects>
      <tilted>0</tilted></_>
    <_>
      <rects>
        <_>
          16 7 4 2 -1.</_>
        <_>
          16 8 4 1 2.</_></rects>
      <tilted>0</tilted></_>
    <_>
      <rects>
        <_>
          16 13 6 15 -1.</_>
        <_>
          18 18 2 5 9.</_></rects>
      <tilted>0</tilted></_>
    <_>
      <rects>
        <_>
          16 14 7 4 -1.</_>
        <_>
          16 16 7 2 2.</_></rects>
      <tilted>0</tilted></_>
    <_>
      <rects>
        <_>
          16 16 10 2 -1.</_>
        <_>
          16 17 10 1 2.</_></rects>
      <tilted>0</tilted></_>
    <_>
      <rects>
        <_>
          16 17 4 2 -1.</_>
        <_>
          16 18 4 1 2.</_></rects>
      <tilted>0</tilted></_>
    <_>
      <rects>
        <_>
          16 23 1 16 -1.</_>
        <_>
          16 23 1 8 2.</_></rects>
      <tilted>1</tilted></_>
    <_>
      <rects>
        <_>
          16 31 1 8 -1.</_>
        <_>
          16 31 1 4 2.</_></rects>
      <tilted>1</tilted></_>
    <_>
      <rects>
        <_>
          16 34 24 6 -1.</_>
        <_>
          16 37 24 3 2.</_></rects>
      <tilted>0</tilted></_>
    <_>
      <rects>
        <_>
          17 7 2 4 -1.</_>
        <_>
          17 9 2 2 2.</_></rects>
      <tilted>0</tilted></_>
    <_>
      <rects>
        <_>
          17 12 6 2 -1.</_>
        <_>
          17 13 6 1 2.</_></rects>
      <tilted>0</tilted></_>
    <_>
      <rects>
        <_>
          17 18 16 6 -1.</_>
        <_>
          15 20 16 2 3.</_></rects>
      <tilted>1</tilted></_>
    <_>
      <rects>
        <_>
          17 35 10 2 -1.</_>
        <_>
          17 36 10 1 2.</_></rects>
      <tilted>0</tilted></_>
    <_>
      <rects>
        <_>
          18 21 4 3 -1.</_>
        <_>
          17 22 4 1 3.</_></rects>
      <tilted>1</tilted></_>
    <_>
      <rects>
        <_>
          18 23 8 6 -1.</_>
        <_>
          18 25 8 2 3.</_></rects>
      <tilted>0</tilted></_>
    <_>
      <rects>
        <_>
          19 15 9 2 -1.</_>
        <_>
          19 16 9 1 2.</_></rects>
      <tilted>0</tilted></_>
    <_>
      <rects>
        <_>
          20 20 3 9 -1.</_>
        <_>
          21 23 1 3 9.</_></rects>
      <tilted>0</tilted></_>
    <_>
      <rects>
        <_>
          20 20 3 6 -1.</_>
        <_>
          20 22 3 2 3.</_></rects>
      <tilted>0</tilted></_>
    <_>
      <rects>
        <_>
          22 11 2 2 -1.</_>
        <_>
          22 11 2 1 2.</_></rects>
      <tilted>1</tilted></_>
    <_>
      <rects>
        <_>
          22 15 3 4 -1.</_>
        <_>
          22 15 3 2 2.</_></rects>
      <tilted>1</tilted></_>
    <_>
      <rects>
        <_>
          23 19 2 2 -1.</_>
        <_>
          23 20 2 1 2.</_></rects>
      <tilted>0</tilted></_>
    <_>
      <rects>
        <_>
          23 27 12 1 -1.</_>
        <_>
          23 27 6 1 2.</_></rects>
      <tilted>1</tilted></_>
    <_>
      <rects>
        <_>
          23 32 16 2 -1.</_>
        <_>
          23 32 8 1 2.</_>
        <_>
          31 33 8 1 2.</_></rects>
      <tilted>0</tilted></_>
    <_>
      <rects>
        <_>
          25 11 6 8 -1.</_>
        <_>
          25 11 6 4 2.</_></rects>
      <tilted>1</tilted></_>
    <_>
      <rects>
        <_>
          25 14 12 1 -1.</_>
        <_>
          25 14 6 1 2.</_></rects>
      <tilted>1</tilted></_>
    <_>
      <rects>
        <_>
          25 17 5 2 -1.</_>
        <_>
          25 17 5 1 2.</_></rects>
      <tilted>1</tilted></_>
    <_>
      <rects>
        <_>
          26 17 4 9 -1.</_>
        <_>
          27 18 2 9 2.</_></rects>
      <tilted>1</tilted></_>
    <_>
      <rects>
        <_>
          27 19 2 1 -1.</_>
        <_>
          28 19 1 1 2.</_></rects>
      <tilted>0</tilted></_>
    <_>
      <rects>
        <_>
          28 14 2 2 -1.</_>
        <_>
          28 14 2 1 2.</_></rects>
      <tilted>1</tilted></_>
    <_>
      <rects>
        <_>
          30 8 10 32 -1.</_>
        <_>
          30 16 10 16 2.</_></rects>
      <tilted>0</tilted></_>
    <_>
      <rects>
        <_>
          30 23 5 2 -1.</_>
        <_>
          30 23 5 1 2.</_></rects>
      <tilted>1</tilted></_>
    <_>
      <rects>
        <_>
          31 3 8 21 -1.</_>
        <_>
          35 3 4 21 2.</_></rects>
      <tilted>0</tilted></_>
    <_>
      <rects>
        <_>
          31 11 3 19 -1.</_>
        <_>
          32 11 1 19 3.</_></rects>
      <tilted>0</tilted></_>
    <_>
      <rects>
        <_>
          34 19 2 11 -1.</_>
        <_>
          34 19 1 11 2.</_></rects>
      <tilted>1</tilted></_>
    <_>
      <rects>
        <_>
          39 0 1 40 -1.</_>
        <_>
          39 20 1 20 2.</_></rects>
      <tilted>0</tilted></_></features></cascade>
</opencv_storage>
