<?xml version="1.0"?>
<opencv_storage>
<cascade>
  <stageType>BOOST</stageType>
  <featureType>HAAR</featureType>
  <height>40</height>
  <width>40</width>
  <stageParams>
    <boostType>GAB</boostType>
    <minHitRate>9.9900001287460327e-01</minHitRate>
    <maxFalseAlarm>5.0000000745058060e-02</maxFalseAlarm>
    <weightTrimRate>9.4999999999999996e-01</weightTrimRate>
    <maxDepth>1</maxDepth>
    <maxWeakCount>100</maxWeakCount></stageParams>
  <featureParams>
    <maxCatCount>0</maxCatCount>
    <featSize>1</featSize>
    <mode>ALL</mode></featureParams>
  <stageNum>10</stageNum>
  <stages>
    <!-- stage 0 -->
    <_>
      <maxWeakCount>1</maxWeakCount>
      <stageThreshold>1.</stageThreshold>
      <weakClassifiers>
        <_>
          <internalNodes>
            0 -1 45 -2.0807847380638123e-02</internalNodes>
          <leafValues>
            1. -1.</leafValues></_></weakClassifiers></_>
    <!-- stage 1 -->
    <_>
      <maxWeakCount>5</maxWeakCount>
      <stageThreshold>9.8592090606689453e-01</stageThreshold>
      <weakClassifiers>
        <_>
          <internalNodes>
            0 -1 9 -1.0282373428344727e-01</internalNodes>
          <leafValues>
            9.4106090068817139e-01 -8.6813187599182129e-01</leafValues></_>
        <_>
          <internalNodes>
            0 -1 25 1.5030128881335258e-02</internalNodes>
          <leafValues>
            -8.6409515142440796e-01 8.6016017198562622e-01</leafValues></_>
        <_>
          <internalNodes>
            0 -1 40 -1.0159528255462646e-01</internalNodes>
          <leafValues>
            9.4960695505142212e-01 -6.3439100980758667e-01</leafValues></_>
        <_>
          <internalNodes>
            0 -1 56 -2.9965399335196707e-06</internalNodes>
          <leafValues>
            8.6595028638839722e-01 -7.5742125511169434e-01</leafValues></_>
        <_>
          <internalNodes>
            0 -1 19 2.3259835870703682e-05</internalNodes>
          <leafValues>
            -7.8855252265930176e-01 7.6233327388763428e-01</leafValues></_></weakClassifiers></_>
    <!-- stage 2 -->
    <_>
      <maxWeakCount>7</maxWeakCount>
      <stageThreshold>6.7040210962295532e-01</stageThreshold>
      <weakClassifiers>
        <_>
          <internalNodes>
            0 -1 6 -6.2154312618076801e-03</internalNodes>
          <leafValues>
            -1. 8.4501844644546509e-01</leafValues></_>
        <_>
          <internalNodes>
            0 -1 10 -8.4011082071810961e-04</internalNodes>
          <leafValues>
            7.0749747753143311e-01 -7.9762291908264160e-01</leafValues></_>
        <_>
          <internalNodes>
            0 -1 59 2.9937539238744648e-06</internalNodes>
          <leafValues>
            -6.3658607006072998e-01 7.6269149780273438e-01</leafValues></_>
        <_>
          <internalNodes>
            0 -1 71 -2.9937539238744648e-06</internalNodes>
          <leafValues>
            7.5293934345245361e-01 -5.9370887279510498e-01</leafValues></_>
        <_>
          <internalNodes>
            0 -1 23 2.9029808956693159e-06</internalNodes>
          <leafValues>
            -8.2892853021621704e-01 5.0650429725646973e-01</leafValues></_>
        <_>
          <internalNodes>
            0 -1 2 -1.2085170745849609e+00</internalNodes>
          <leafValues>
            8.6905539035797119e-01 -5.5131983757019043e-01</leafValues></_>
        <_>
          <internalNodes>
            0 -1 39 2.9020768579357537e-06</internalNodes>
          <leafValues>
            -8.1757277250289917e-01 5.5146884918212891e-01</leafValues></_></weakClassifiers></_>
    <!-- stage 3 -->
    <_>
      <maxWeakCount>8</maxWeakCount>
      <stageThreshold>6.2612074613571167e-01</stageThreshold>
      <weakClassifiers>
        <_>
          <internalNodes>
            0 -1 48 -1.0930594289675355e-03</internalNodes>
          <leafValues>
            -1. 7.9856115579605103e-01</leafValues></_>
        <_>
          <internalNodes>
            0 -1 61 8.2217960152775049e-04</internalNodes>
          <leafValues>
            6.6217494010925293e-01 -8.5401213169097900e-01</leafValues></_>
        <_>
          <internalNodes>
            0 -1 13 1.9402969337534159e-04</internalNodes>
          <leafValues>
            -7.0781517028808594e-01 6.4092814922332764e-01</leafValues></_>
        <_>
          <internalNodes>
            0 -1 49 -2.9043969789199764e-06</internalNodes>
          <leafValues>
            5.0270992517471313e-01 -8.6486959457397461e-01</leafValues></_>
        <_>
          <internalNodes>
            0 -1 22 5.2642149967141449e-05</internalNodes>
          <leafValues>
            -8.0559545755386353e-01 5.4457420110702515e-01</leafValues></_>
        <_>
          <internalNodes>
            0 -1 54 -2.9132531835784903e-06</internalNodes>
          <leafValues>
            5.7507628202438354e-01 -6.9283139705657959e-01</leafValues></_>
        <_>
          <internalNodes>
            0 -1 31 2.9393306704150746e-06</internalNodes>
          <leafValues>
            -6.1640352010726929e-01 6.6854530572891235e-01</leafValues></_>
        <_>
          <internalNodes>
            0 -1 62 -3.6053895655641099e-06</internalNodes>
          <leafValues>
            3.8485637307167053e-01 -8.7680345773696899e-01</leafValues></_></weakClassifiers></_>
    <!-- stage 4 -->
    <_>
      <maxWeakCount>9</maxWeakCount>
      <stageThreshold>-5.3932689130306244e-02</stageThreshold>
      <weakClassifiers>
        <_>
          <internalNodes>
            0 -1 60 9.2838554337504320e-06</internalNodes>
          <leafValues>
            -3.4653463959693909e-01 8.7174350023269653e-01</leafValues></_>
        <_>
          <internalNodes>
            0 -1 32 -1.5886090113781393e-04</internalNodes>
          <leafValues>
            5.8959716558456421e-01 -9.8664939403533936e-01</leafValues></_>
        <_>
          <internalNodes>
            0 -1 69 6.3219913499779068e-06</internalNodes>
          <leafValues>
            -5.4217052459716797e-01 6.8243455886840820e-01</leafValues></_>
        <_>
          <internalNodes>
            0 -1 27 -2.9245693440316245e-06</internalNodes>
          <leafValues>
            4.9028658866882324e-01 -7.6079571247100830e-01</leafValues></_>
        <_>
          <internalNodes>
            0 -1 70 2.9249754334159661e-06</internalNodes>
          <leafValues>
            -3.6478620767593384e-01 8.8338565826416016e-01</leafValues></_>
        <_>
          <internalNodes>
            0 -1 1 -8.7937974929809570e-01</internalNodes>
          <leafValues>
            8.4216630458831787e-01 -4.3658879399299622e-01</leafValues></_>
        <_>
          <internalNodes>
            0 -1 15 -2.9599616482300917e-06</internalNodes>
          <leafValues>
            5.9050786495208740e-01 -5.9221112728118896e-01</leafValues></_>
        <_>
          <internalNodes>
            0 -1 74 7.8980042599141598e-04</internalNodes>
          <leafValues>
            4.6832063794136047e-01 -7.8128409385681152e-01</leafValues></_>
        <_>
          <internalNodes>
            0 -1 52 -1.3368051499128342e-02</internalNodes>
          <leafValues>
            6.7826795578002930e-01 -5.3812390565872192e-01</leafValues></_></weakClassifiers></_>
    <!-- stage 5 -->
    <_>
      <maxWeakCount>9</maxWeakCount>
      <stageThreshold>2.1913625299930573e-01</stageThreshold>
      <weakClassifiers>
        <_>
          <internalNodes>
            0 -1 21 -4.3504424393177032e-03</internalNodes>
          <leafValues>
            -9.5918369293212891e-01 8.1125229597091675e-01</leafValues></_>
        <_>
          <internalNodes>
            0 -1 73 -6.2271878960018512e-06</internalNodes>
          <leafValues>
            7.9888647794723511e-01 -3.5458838939666748e-01</leafValues></_>
        <_>
          <internalNodes>
            0 -1 16 -1.0368045419454575e-01</internalNodes>
          <leafValues>
            9.3395817279815674e-01 -3.7435281276702881e-01</leafValues></_>
        <_>
          <internalNodes>
            0 -1 37 2.9468762932083337e-06</internalNodes>
          <leafValues>
            -6.5106898546218872e-01 5.4166239500045776e-01</leafValues></_>
        <_>
          <internalNodes>
            0 -1 47 -2.9248235478007700e-06</internalNodes>
          <leafValues>
            6.3248479366302490e-01 -5.1306354999542236e-01</leafValues></_>
        <_>
          <internalNodes>
            0 -1 20 -2.8999911592109129e-06</internalNodes>
          <leafValues>
            7.6803624629974365e-01 -4.8747327923774719e-01</leafValues></_>
        <_>
          <internalNodes>
            0 -1 18 1.8340313545195386e-05</internalNodes>
          <leafValues>
            -6.6237866878509521e-01 4.9487686157226563e-01</leafValues></_>
        <_>
          <internalNodes>
            0 -1 8 -2.0829881541430950e-03</internalNodes>
          <leafValues>
            9.2186027765274048e-01 -3.4986299276351929e-01</leafValues></_>
        <_>
          <internalNodes>
            0 -1 4 5.7317176833748817e-03</internalNodes>
          <leafValues>
            5.6691205501556396e-01 -7.0278912782669067e-01</leafValues></_></weakClassifiers></_>
    <!-- stage 6 -->
    <_>
      <maxWeakCount>9</maxWeakCount>
      <stageThreshold>-1.8278668820858002e-01</stageThreshold>
      <weakClassifiers>
        <_>
          <internalNodes>
            0 -1 29 -1.3660455122590065e-02</internalNodes>
          <leafValues>
            8.3109402656555176e-01 -4.1772150993347168e-01</leafValues></_>
        <_>
          <internalNodes>
            0 -1 51 2.9315867777768290e-06</internalNodes>
          <leafValues>
            -4.4023567438125610e-01 7.6208585500717163e-01</leafValues></_>
        <_>
          <internalNodes>
            0 -1 24 2.8756226129189599e-06</internalNodes>
          <leafValues>
            -5.3519725799560547e-01 7.2472268342971802e-01</leafValues></_>
        <_>
          <internalNodes>
            0 -1 58 -1.1453271326899994e-05</internalNodes>
          <leafValues>
            6.4253187179565430e-01 -5.8643513917922974e-01</leafValues></_>
        <_>
          <internalNodes>
            0 -1 17 -2.8836993806180544e-06</internalNodes>
          <leafValues>
            4.8521110415458679e-01 -7.5653952360153198e-01</leafValues></_>
        <_>
          <internalNodes>
            0 -1 42 -2.8978747650398873e-06</internalNodes>
          <leafValues>
            7.4405735731124878e-01 -5.6641459465026855e-01</leafValues></_>
        <_>
          <internalNodes>
            0 -1 35 -2.9132531835784903e-06</internalNodes>
          <leafValues>
            6.1048805713653564e-01 -6.7849910259246826e-01</leafValues></_>
        <_>
          <internalNodes>
            0 -1 7 2.9145608095859643e-06</internalNodes>
          <leafValues>
            -6.9987708330154419e-01 5.3110885620117188e-01</leafValues></_>
        <_>
          <internalNodes>
            0 -1 36 -9.5630977302789688e-03</internalNodes>
          <leafValues>
            6.9657617807388306e-01 -5.3261440992355347e-01</leafValues></_></weakClassifiers></_>
    <!-- stage 7 -->
    <_>
      <maxWeakCount>10</maxWeakCount>
      <stageThreshold>-3.0650115013122559e-01</stageThreshold>
      <weakClassifiers>
        <_>
          <internalNodes>
            0 -1 64 -2.8945607937203022e-06</internalNodes>
          <leafValues>
            9.0970653295516968e-01 -1.9108280539512634e-02</leafValues></_>
        <_>
          <internalNodes>
            0 -1 53 -5.8692021411843598e-06</internalNodes>
          <leafValues>
            5.9823614358901978e-01 -6.3120335340499878e-01</leafValues></_>
        <_>
          <internalNodes>
            0 -1 43 2.9177499527577311e-06</internalNodes>
          <leafValues>
            -5.0147354602813721e-01 5.8738440275192261e-01</leafValues></_>
        <_>
          <internalNodes>
            0 -1 66 -2.9322225145733682e-06</internalNodes>
          <leafValues>
            7.5151687860488892e-01 -4.9789604544639587e-01</leafValues></_>
        <_>
          <internalNodes>
            0 -1 3 -8.7300717830657959e-01</internalNodes>
          <leafValues>
            7.2135734558105469e-01 -5.1858764886856079e-01</leafValues></_>
        <_>
          <internalNodes>
            0 -1 34 -1.9945729523897171e-02</internalNodes>
          <leafValues>
            -8.4942716360092163e-01 4.1343837976455688e-01</leafValues></_>
        <_>
          <internalNodes>
            0 -1 44 2.8929796371812699e-06</internalNodes>
          <leafValues>
            -4.8013991117477417e-01 7.1747088432312012e-01</leafValues></_>
        <_>
          <internalNodes>
            0 -1 33 -5.3308741189539433e-04</internalNodes>
          <leafValues>
            4.3753385543823242e-01 -8.0578953027725220e-01</leafValues></_>
        <_>
          <internalNodes>
            0 -1 67 -3.1008430596557446e-06</internalNodes>
          <leafValues>
            7.6960843801498413e-01 -4.5713710784912109e-01</leafValues></_>
        <_>
          <internalNodes>
            0 -1 14 -2.8856359222118044e-06</internalNodes>
          <leafValues>
            8.4710657596588135e-01 -3.3839619159698486e-01</leafValues></_></weakClassifiers></_>
    <!-- stage 8 -->
    <_>
      <maxWeakCount>8</maxWeakCount>
      <stageThreshold>6.5674376487731934e-01</stageThreshold>
      <weakClassifiers>
        <_>
          <internalNodes>
            0 -1 50 -9.2327827587723732e-04</internalNodes>
          <leafValues>
            -8.2222223281860352e-01 7.8738737106323242e-01</leafValues></_>
        <_>
          <internalNodes>
            0 -1 0 -6.7526628263294697e-03</internalNodes>
          <leafValues>
            -6.6372144222259521e-01 7.0524859428405762e-01</leafValues></_>
        <_>
          <internalNodes>
            0 -1 46 2.8858305540779838e-06</internalNodes>
          <leafValues>
            -5.5877977609634399e-01 6.5622800588607788e-01</leafValues></_>
        <_>
          <internalNodes>
            0 -1 38 2.9626185096276458e-06</internalNodes>
          <leafValues>
            -5.8873450756072998e-01 6.2056303024291992e-01</leafValues></_>
        <_>
          <internalNodes>
            0 -1 72 2.9397463094937848e-06</internalNodes>
          <leafValues>
            -4.7626292705535889e-01 7.6565814018249512e-01</leafValues></_>
        <_>
          <internalNodes>
            0 -1 68 -9.1460224211914465e-06</internalNodes>
          <leafValues>
            7.2462904453277588e-01 -5.5326753854751587e-01</leafValues></_>
        <_>
          <internalNodes>
            0 -1 12 6.5886543598026037e-04</internalNodes>
          <leafValues>
            7.3694282770156860e-01 -6.0134708881378174e-01</leafValues></_>
        <_>
          <internalNodes>
            0 -1 63 -1.1377387636457570e-05</internalNodes>
          <leafValues>
            9.5412302017211914e-01 -3.5475680232048035e-01</leafValues></_></weakClassifiers></_>
    <!-- stage 9 -->
    <_>
      <maxWeakCount>9</maxWeakCount>
      <stageThreshold>2.0945696532726288e-01</stageThreshold>
      <weakClassifiers>
        <_>
          <internalNodes>
            0 -1 57 -2.1130318054929376e-04</internalNodes>
          <leafValues>
            7.8571426868438721e-01 -1.</leafValues></_>
        <_>
          <internalNodes>
            0 -1 5 3.0185872219590237e-06</internalNodes>
          <leafValues>
            -6.9059383869171143e-01 6.8472880125045776e-01</leafValues></_>
        <_>
          <internalNodes>
            0 -1 41 -2.8984723030589521e-06</internalNodes>
          <leafValues>
            5.9326577186584473e-01 -6.0514116287231445e-01</leafValues></_>
        <_>
          <internalNodes>
            0 -1 30 -8.8222092017531395e-04</internalNodes>
          <leafValues>
            -8.7613582611083984e-01 3.4336724877357483e-01</leafValues></_>
        <_>
          <internalNodes>
            0 -1 11 2.8858305540779838e-06</internalNodes>
          <leafValues>
            -6.0775130987167358e-01 4.9104571342468262e-01</leafValues></_>
        <_>
          <internalNodes>
            0 -1 28 -4.9315684009343386e-04</internalNodes>
          <leafValues>
            -8.8055086135864258e-01 3.5335576534271240e-01</leafValues></_>
        <_>
          <internalNodes>
            0 -1 55 -3.1029405818117084e-06</internalNodes>
          <leafValues>
            4.1466856002807617e-01 -7.3779284954071045e-01</leafValues></_>
        <_>
          <internalNodes>
            0 -1 26 -2.9169204935897142e-06</internalNodes>
          <leafValues>
            7.2919154167175293e-01 -5.1719081401824951e-01</leafValues></_>
        <_>
          <internalNodes>
            0 -1 65 3.2327109238394769e-06</internalNodes>
          <leafValues>
            -4.7785440087318420e-01 8.0528038740158081e-01</leafValues></_></weakClassifiers></_></stages>
  <features>
    <_>
      <rects>
        <_>
          0 1 40 2 -1.</_>
        <_>
          10 1 20 2 2.</_></rects>
      <tilted>0</tilted></_>
    <_>
      <rects>
        <_>
          0 3 39 30 -1.</_>
        <_>
          13 13 13 10 9.</_></rects>
      <tilted>0</tilted></_>
    <_>
      <rects>
        <_>
          1 0 39 39 -1.</_>
        <_>
          14 13 13 13 9.</_></rects>
      <tilted>0</tilted></_>
    <_>
      <rects>
        <_>
          1 3 36 36 -1.</_>
        <_>
          13 15 12 12 9.</_></rects>
      <tilted>0</tilted></_>
    <_>
      <rects>
        <_>
          1 30 38 6 -1.</_>
        <_>
          1 30 19 3 2.</_>
        <_>
          20 33 19 3 2.</_></rects>
      <tilted>0</tilted></_>
    <_>
      <rects>
        <_>
          1 36 26 4 -1.</_>
        <_>
          1 38 26 2 2.</_></rects>
      <tilted>0</tilted></_>
    <_>
      <rects>
        <_>
          2 18 38 22 -1.</_>
        <_>
          2 29 38 11 2.</_></rects>
      <tilted>0</tilted></_>
    <_>
      <rects>
        <_>
          2 35 24 2 -1.</_>
        <_>
          2 36 24 1 2.</_></rects>
      <tilted>0</tilted></_>
    <_>
      <rects>
        <_>
          3 34 33 6 -1.</_>
        <_>
          3 36 33 2 3.</_></rects>
      <tilted>0</tilted></_>
    <_>
      <rects>
        <_>
          4 4 36 18 -1.</_>
        <_>
          13 4 18 18 2.</_></rects>
      <tilted>0</tilted></_>
    <_>
      <rects>
        <_>
          4 10 22 12 -1.</_>
        <_>
          4 13 22 6 2.</_></rects>
      <tilted>0</tilted></_>
    <_>
      <rects>
        <_>
          4 26 16 4 -1.</_>
        <_>
          4 26 8 2 2.</_>
        <_>
          12 28 8 2 2.</_></rects>
      <tilted>0</tilted></_>
    <_>
      <rects>
        <_>
          4 28 32 12 -1.</_>
        <_>
          4 31 32 6 2.</_></rects>
      <tilted>0</tilted></_>
    <_>
      <rects>
        <_>
          6 11 22 4 -1.</_>
        <_>
          6 11 11 2 2.</_>
        <_>
          17 13 11 2 2.</_></rects>
      <tilted>0</tilted></_>
    <_>
      <rects>
        <_>
          8 20 4 1 -1.</_>
        <_>
          10 20 2 1 2.</_></rects>
      <tilted>0</tilted></_>
    <_>
      <rects>
        <_>
          9 7 8 1 -1.</_>
        <_>
          13 7 4 1 2.</_></rects>
      <tilted>0</tilted></_>
    <_>
      <rects>
        <_>
          11 2 22 24 -1.</_>
        <_>
          11 8 22 12 2.</_></rects>
      <tilted>0</tilted></_>
    <_>
      <rects>
        <_>
          12 7 4 8 -1.</_>
        <_>
          14 7 2 8 2.</_></rects>
      <tilted>0</tilted></_>
    <_>
      <rects>
        <_>
          12 21 19 2 -1.</_>
        <_>
          12 22 19 1 2.</_></rects>
      <tilted>0</tilted></_>
    <_>
      <rects>
        <_>
          12 32 17 2 -1.</_>
        <_>
          12 33 17 1 2.</_></rects>
      <tilted>0</tilted></_>
    <_>
      <rects>
        <_>
          13 10 1 4 -1.</_>
        <_>
          13 12 1 2 2.</_></rects>
      <tilted>0</tilted></_>
    <_>
      <rects>
        <_>
          13 14 4 10 -1.</_>
        <_>
          13 19 4 5 2.</_></rects>
      <tilted>0</tilted></_>
    <_>
      <rects>
        <_>
          14 23 26 2 -1.</_>
        <_>
          14 24 26 1 2.</_></rects>
      <tilted>0</tilted></_>
    <_>
      <rects>
        <_>
          15 30 15 2 -1.</_>
        <_>
          15 31 15 1 2.</_></rects>
      <tilted>0</tilted></_>
    <_>
      <rects>
        <_>
          15 34 14 2 -1.</_>
        <_>
          15 35 14 1 2.</_></rects>
      <tilted>0</tilted></_>
    <_>
      <rects>
        <_>
          16 1 12 7 -1.</_>
        <_>
          16 1 6 7 2.</_></rects>
      <tilted>1</tilted></_>
    <_>
      <rects>
        <_>
          16 8 2 2 -1.</_>
        <_>
          17 8 1 2 2.</_></rects>
      <tilted>0</tilted></_>
    <_>
      <rects>
        <_>
          16 17 16 1 -1.</_>
        <_>
          20 17 8 1 2.</_></rects>
      <tilted>0</tilted></_>
    <_>
      <rects>
        <_>
          16 32 16 4 -1.</_>
        <_>
          16 33 16 2 2.</_></rects>
      <tilted>0</tilted></_>
    <_>
      <rects>
        <_>
          17 5 16 12 -1.</_>
        <_>
          14 8 16 6 2.</_></rects>
      <tilted>1</tilted></_>
    <_>
      <rects>
        <_>
          17 28 7 4 -1.</_>
        <_>
          17 29 7 2 2.</_></rects>
      <tilted>0</tilted></_>
    <_>
      <rects>
        <_>
          18 4 2 2 -1.</_>
        <_>
          18 4 1 2 2.</_></rects>
      <tilted>1</tilted></_>
    <_>
      <rects>
        <_>
          18 10 9 14 -1.</_>
        <_>
          18 10 9 7 2.</_></rects>
      <tilted>1</tilted></_>
    <_>
      <rects>
        <_>
          19 2 8 26 -1.</_>
        <_>
          21 2 4 26 2.</_></rects>
      <tilted>0</tilted></_>
    <_>
      <rects>
        <_>
          19 6 16 2 -1.</_>
        <_>
          23 10 8 2 2.</_></rects>
      <tilted>1</tilted></_>
    <_>
      <rects>
        <_>
          19 7 2 8 -1.</_>
        <_>
          19 9 2 4 2.</_></rects>
      <tilted>0</tilted></_>
    <_>
      <rects>
        <_>
          19 13 15 9 -1.</_>
        <_>
          16 16 15 3 3.</_></rects>
      <tilted>1</tilted></_>
    <_>
      <rects>
        <_>
          19 19 4 12 -1.</_>
        <_>
          19 25 4 6 2.</_></rects>
      <tilted>0</tilted></_>
    <_>
      <rects>
        <_>
          19 24 10 2 -1.</_>
        <_>
          19 25 10 1 2.</_></rects>
      <tilted>0</tilted></_>
    <_>
      <rects>
        <_>
          19 25 13 2 -1.</_>
        <_>
          19 26 13 1 2.</_></rects>
      <tilted>0</tilted></_>
    <_>
      <rects>
        <_>
          20 0 20 20 -1.</_>
        <_>
          15 5 20 10 2.</_></rects>
      <tilted>1</tilted></_>
    <_>
      <rects>
        <_>
          20 9 5 6 -1.</_>
        <_>
          20 11 5 2 3.</_></rects>
      <tilted>0</tilted></_>
    <_>
      <rects>
        <_>
          20 15 5 4 -1.</_>
        <_>
          20 16 5 2 2.</_></rects>
      <tilted>0</tilted></_>
    <_>
      <rects>
        <_>
          20 23 6 4 -1.</_>
        <_>
          20 25 6 2 2.</_></rects>
      <tilted>0</tilted></_>
    <_>
      <rects>
        <_>
          20 23 8 2 -1.</_>
        <_>
          20 24 8 1 2.</_></rects>
      <tilted>0</tilted></_>
    <_>
      <rects>
        <_>
          21 2 12 36 -1.</_>
        <_>
          25 14 4 12 9.</_></rects>
      <tilted>0</tilted></_>
    <_>
      <rects>
        <_>
          21 4 2 2 -1.</_>
        <_>
          21 4 1 2 2.</_></rects>
      <tilted>1</tilted></_>
    <_>
      <rects>
        <_>
          21 14 6 6 -1.</_>
        <_>
          23 14 2 6 3.</_></rects>
      <tilted>0</tilted></_>
    <_>
      <rects>
        <_>
          22 11 4 4 -1.</_>
        <_>
          22 13 4 2 2.</_></rects>
      <tilted>0</tilted></_>
    <_>
      <rects>
        <_>
          22 15 6 9 -1.</_>
        <_>
          19 18 6 3 3.</_></rects>
      <tilted>1</tilted></_>
    <_>
      <rects>
        <_>
          23 22 10 3 -1.</_>
        <_>
          23 23 10 1 3.</_></rects>
      <tilted>0</tilted></_>
    <_>
      <rects>
        <_>
          24 1 4 3 -1.</_>
        <_>
          24 1 2 3 2.</_></rects>
      <tilted>1</tilted></_>
    <_>
      <rects>
        <_>
          24 15 12 11 -1.</_>
        <_>
          27 15 6 11 2.</_></rects>
      <tilted>0</tilted></_>
    <_>
      <rects>
        <_>
          24 25 14 1 -1.</_>
        <_>
          24 25 7 1 2.</_></rects>
      <tilted>1</tilted></_>
    <_>
      <rects>
        <_>
          24 29 12 2 -1.</_>
        <_>
          24 29 6 1 2.</_>
        <_>
          30 30 6 1 2.</_></rects>
      <tilted>0</tilted></_>
    <_>
      <rects>
        <_>
          25 8 8 7 -1.</_>
        <_>
          27 10 4 7 2.</_></rects>
      <tilted>1</tilted></_>
    <_>
      <rects>
        <_>
          25 8 11 2 -1.</_>
        <_>
          25 9 11 1 2.</_></rects>
      <tilted>0</tilted></_>
    <_>
      <rects>
        <_>
          26 12 2 26 -1.</_>
        <_>
          26 12 2 13 2.</_></rects>
      <tilted>1</tilted></_>
    <_>
      <rects>
        <_>
          26 27 10 2 -1.</_>
        <_>
          26 27 5 1 2.</_>
        <_>
          31 28 5 1 2.</_></rects>
      <tilted>0</tilted></_>
    <_>
      <rects>
        <_>
          27 2 2 10 -1.</_>
        <_>
          28 2 1 10 2.</_></rects>
      <tilted>0</tilted></_>
    <_>
      <rects>
        <_>
          27 23 8 1 -1.</_>
        <_>
          31 23 4 1 2.</_></rects>
      <tilted>0</tilted></_>
    <_>
      <rects>
        <_>
          28 1 12 6 -1.</_>
        <_>
          32 5 4 6 3.</_></rects>
      <tilted>1</tilted></_>
    <_>
      <rects>
        <_>
          28 4 12 7 -1.</_>
        <_>
          31 7 6 7 2.</_></rects>
      <tilted>1</tilted></_>
    <_>
      <rects>
        <_>
          28 9 1 2 -1.</_>
        <_>
          28 10 1 1 2.</_></rects>
      <tilted>0</tilted></_>
    <_>
      <rects>
        <_>
          28 11 10 2 -1.</_>
        <_>
          28 12 10 1 2.</_></rects>
      <tilted>0</tilted></_>
    <_>
      <rects>
        <_>
          28 38 12 2 -1.</_>
        <_>
          34 38 6 2 2.</_></rects>
      <tilted>0</tilted></_>
    <_>
      <rects>
        <_>
          30 11 8 2 -1.</_>
        <_>
          30 12 8 1 2.</_></rects>
      <tilted>0</tilted></_>
    <_>
      <rects>
        <_>
          30 12 6 2 -1.</_>
        <_>
          30 13 6 1 2.</_></rects>
      <tilted>0</tilted></_>
    <_>
      <rects>
        <_>
          30 19 2 2 -1.</_>
        <_>
          30 19 1 2 2.</_></rects>
      <tilted>1</tilted></_>
    <_>
      <rects>
        <_>
          31 20 2 4 -1.</_>
        <_>
          32 20 1 4 2.</_></rects>
      <tilted>0</tilted></_>
    <_>
      <rects>
        <_>
          32 2 6 6 -1.</_>
        <_>
          34 4 2 2 9.</_></rects>
      <tilted>0</tilted></_>
    <_>
      <rects>
        <_>
          32 20 2 2 -1.</_>
        <_>
          32 20 1 2 2.</_></rects>
      <tilted>1</tilted></_>
    <_>
      <rects>
        <_>
          33 18 6 1 -1.</_>
        <_>
          36 18 3 1 2.</_></rects>
      <tilted>0</tilted></_>
    <_>
      <rects>
        <_>
          33 23 2 2 -1.</_>
        <_>
          33 23 1 2 2.</_></rects>
      <tilted>1</tilted></_>
    <_>
      <rects>
        <_>
          34 3 4 27 -1.</_>
        <_>
          34 12 4 9 3.</_></rects>
      <tilted>0</tilted></_></features></cascade>
</opencv_storage>
