<?xml version="1.0"?>
<opencv_storage>
<cascade>
  <stageType>BOOST</stageType>
  <featureType>HAAR</featureType>
  <height>24</height>
  <width>24</width>
  <stageParams>
    <boostType>GAB</boostType>
    <minHitRate>9.9500000476837158e-01</minHitRate>
    <maxFalseAlarm>5.0000000000000000e-01</maxFalseAlarm>
    <weightTrimRate>9.4999999999999996e-01</weightTrimRate>
    <maxDepth>1</maxDepth>
    <maxWeakCount>100</maxWeakCount></stageParams>
  <featureParams>
    <maxCatCount>0</maxCatCount>
    <featSize>1</featSize>
    <mode>BASIC</mode></featureParams>
  <stageNum>7</stageNum>
  <stages>
    <!-- stage 0 -->
    <_>
      <maxWeakCount>3</maxWeakCount>
      <stageThreshold>-1.0914926528930664e+00</stageThreshold>
      <weakClassifiers>
        <_>
          <internalNodes>
            0 -1 10 -4.9098365008831024e-02</internalNodes>
          <leafValues>
            8.7197232246398926e-01 -9.6853148937225342e-01</leafValues></_>
        <_>
          <internalNodes>
            0 -1 18 2.0507156848907471e-02</internalNodes>
          <leafValues>
            -8.6958879232406616e-01 9.2361950874328613e-01</leafValues></_>
        <_>
          <internalNodes>
            0 -1 21 4.5383960008621216e-02</internalNodes>
          <leafValues>
            -9.4041210412979126e-01 7.4662762880325317e-01</leafValues></_></weakClassifiers></_>
    <!-- stage 1 -->
    <_>
      <maxWeakCount>3</maxWeakCount>
      <stageThreshold>-9.4673591852188110e-01</stageThreshold>
      <weakClassifiers>
        <_>
          <internalNodes>
            0 -1 0 2.5948978960514069e-02</internalNodes>
          <leafValues>
            -8.1120002269744873e-01 8.7047618627548218e-01</leafValues></_>
        <_>
          <internalNodes>
            0 -1 2 -3.1787097454071045e-02</internalNodes>
          <leafValues>
            8.5439157485961914e-01 -8.3801501989364624e-01</leafValues></_>
        <_>
          <internalNodes>
            0 -1 23 -4.3945983052253723e-03</internalNodes>
          <leafValues>
            7.0247912406921387e-01 -8.6217874288558960e-01</leafValues></_></weakClassifiers></_>
    <!-- stage 2 -->
    <_>
      <maxWeakCount>3</maxWeakCount>
      <stageThreshold>-9.3950146436691284e-01</stageThreshold>
      <weakClassifiers>
        <_>
          <internalNodes>
            0 -1 6 -7.4347436428070068e-02</internalNodes>
          <leafValues>
            6.7515921592712402e-01 -9.0804594755172729e-01</leafValues></_>
        <_>
          <internalNodes>
            0 -1 9 5.1693007349967957e-02</internalNodes>
          <leafValues>
            -7.2891098260879517e-01 8.8334566354751587e-01</leafValues></_>
        <_>
          <internalNodes>
            0 -1 5 -4.5508993789553642e-03</internalNodes>
          <leafValues>
            6.9745552539825439e-01 -8.1531518697738647e-01</leafValues></_></weakClassifiers></_>
    <!-- stage 3 -->
    <_>
      <maxWeakCount>3</maxWeakCount>
      <stageThreshold>-5.9022402763366699e-01</stageThreshold>
      <weakClassifiers>
        <_>
          <internalNodes>
            0 -1 25 2.8504535555839539e-02</internalNodes>
          <leafValues>
            -7.6311337947845459e-01 7.1735239028930664e-01</leafValues></_>
        <_>
          <internalNodes>
            0 -1 3 4.9017801880836487e-02</internalNodes>
          <leafValues>
            -5.7090276479721069e-01 8.4646791219711304e-01</leafValues></_>
        <_>
          <internalNodes>
            0 -1 7 3.6586578935384750e-02</internalNodes>
          <leafValues>
            -6.4177030324935913e-01 7.4379211664199829e-01</leafValues></_></weakClassifiers></_>
    <!-- stage 4 -->
    <_>
      <maxWeakCount>4</maxWeakCount>
      <stageThreshold>-6.1664146184921265e-01</stageThreshold>
      <weakClassifiers>
        <_>
          <internalNodes>
            0 -1 8 3.2902915030717850e-02</internalNodes>
          <leafValues>
            -7.7554440498352051e-01 7.4683547019958496e-01</leafValues></_>
        <_>
          <internalNodes>
            0 -1 14 -3.7627696990966797e-02</internalNodes>
          <leafValues>
            6.6477829217910767e-01 -7.9722070693969727e-01</leafValues></_>
        <_>
          <internalNodes>
            0 -1 17 1.4448470436036587e-02</internalNodes>
          <leafValues>
            -9.7413259744644165e-01 4.7854796051979065e-01</leafValues></_>
        <_>
          <internalNodes>
            0 -1 13 2.6683075353503227e-02</internalNodes>
          <leafValues>
            -8.5037440061569214e-01 4.7757562994956970e-01</leafValues></_></weakClassifiers></_>
    <!-- stage 5 -->
    <_>
      <maxWeakCount>5</maxWeakCount>
      <stageThreshold>-1.3870429992675781e+00</stageThreshold>
      <weakClassifiers>
        <_>
          <internalNodes>
            0 -1 12 2.0197052508592606e-03</internalNodes>
          <leafValues>
            -7.1525424718856812e-01 6.6428571939468384e-01</leafValues></_>
        <_>
          <internalNodes>
            0 -1 19 -2.5481047108769417e-02</internalNodes>
          <leafValues>
            5.9538638591766357e-01 -7.4989658594131470e-01</leafValues></_>
        <_>
          <internalNodes>
            0 -1 15 -4.4487286359071732e-02</internalNodes>
          <leafValues>
            6.6955846548080444e-01 -6.2525027990341187e-01</leafValues></_>
        <_>
          <internalNodes>
            0 -1 16 6.6255149431526661e-03</internalNodes>
          <leafValues>
            -9.8930853605270386e-01 3.8509863615036011e-01</leafValues></_>
        <_>
          <internalNodes>
            0 -1 24 3.2382761128246784e-03</internalNodes>
          <leafValues>
            -9.8000216484069824e-01 3.1825944781303406e-01</leafValues></_></weakClassifiers></_>
    <!-- stage 6 -->
    <_>
      <maxWeakCount>5</maxWeakCount>
      <stageThreshold>-1.2166954278945923e+00</stageThreshold>
      <weakClassifiers>
        <_>
          <internalNodes>
            0 -1 1 3.1702119857072830e-02</internalNodes>
          <leafValues>
            -6.6349208354949951e-01 7.0769232511520386e-01</leafValues></_>
        <_>
          <internalNodes>
            0 -1 20 2.5333788245916367e-02</internalNodes>
          <leafValues>
            -7.9370796680450439e-01 5.2269649505615234e-01</leafValues></_>
        <_>
          <internalNodes>
            0 -1 22 -1.3466223608702421e-03</internalNodes>
          <leafValues>
            3.9318260550498962e-01 -9.5550274848937988e-01</leafValues></_>
        <_>
          <internalNodes>
            0 -1 4 9.4374418258666992e-03</internalNodes>
          <leafValues>
            -5.7032454013824463e-01 7.4076247215270996e-01</leafValues></_>
        <_>
          <internalNodes>
            0 -1 11 3.4363977611064911e-03</internalNodes>
          <leafValues>
            -9.6097701787948608e-01 4.1764655709266663e-01</leafValues></_></weakClassifiers></_></stages>
  <features>
    <_>
      <rects>
        <_>
          0 18 14 4 -1.</_>
        <_>
          0 18 7 2 2.</_>
        <_>
          7 20 7 2 2.</_></rects>
      <tilted>0</tilted></_>
    <_>
      <rects>
        <_>
          1 18 12 4 -1.</_>
        <_>
          1 18 6 2 2.</_>
        <_>
          7 20 6 2 2.</_></rects>
      <tilted>0</tilted></_>
    <_>
      <rects>
        <_>
          2 1 12 6 -1.</_>
        <_>
          2 1 6 3 2.</_>
        <_>
          8 4 6 3 2.</_></rects>
      <tilted>0</tilted></_>
    <_>
      <rects>
        <_>
          3 4 6 16 -1.</_>
        <_>
          5 4 2 16 3.</_></rects>
      <tilted>0</tilted></_>
    <_>
      <rects>
        <_>
          5 7 3 9 -1.</_>
        <_>
          6 7 1 9 3.</_></rects>
      <tilted>0</tilted></_>
    <_>
      <rects>
        <_>
          6 10 4 3 -1.</_>
        <_>
          8 10 2 3 2.</_></rects>
      <tilted>0</tilted></_>
    <_>
      <rects>
        <_>
          7 1 10 8 -1.</_>
        <_>
          7 5 10 4 2.</_></rects>
      <tilted>0</tilted></_>
    <_>
      <rects>
        <_>
          8 0 8 6 -1.</_>
        <_>
          8 2 8 2 3.</_></rects>
      <tilted>0</tilted></_>
    <_>
      <rects>
        <_>
          8 18 8 4 -1.</_>
        <_>
          8 20 8 2 2.</_></rects>
      <tilted>0</tilted></_>
    <_>
      <rects>
        <_>
          8 18 9 6 -1.</_>
        <_>
          8 20 9 2 3.</_></rects>
      <tilted>0</tilted></_>
    <_>
      <rects>
        <_>
          9 1 5 12 -1.</_>
        <_>
          9 5 5 4 3.</_></rects>
      <tilted>0</tilted></_>
    <_>
      <rects>
        <_>
          9 12 5 6 -1.</_>
        <_>
          9 14 5 2 3.</_></rects>
      <tilted>0</tilted></_>
    <_>
      <rects>
        <_>
          9 14 2 3 -1.</_>
        <_>
          10 14 1 3 2.</_></rects>
      <tilted>0</tilted></_>
    <_>
      <rects>
        <_>
          9 15 6 8 -1.</_>
        <_>
          9 19 6 4 2.</_></rects>
      <tilted>0</tilted></_>
    <_>
      <rects>
        <_>
          10 1 5 6 -1.</_>
        <_>
          10 4 5 3 2.</_></rects>
      <tilted>0</tilted></_>
    <_>
      <rects>
        <_>
          10 5 9 10 -1.</_>
        <_>
          13 5 3 10 3.</_></rects>
      <tilted>0</tilted></_>
    <_>
      <rects>
        <_>
          10 8 4 6 -1.</_>
        <_>
          10 11 4 3 2.</_></rects>
      <tilted>0</tilted></_>
    <_>
      <rects>
        <_>
          10 8 5 8 -1.</_>
        <_>
          10 12 5 4 2.</_></rects>
      <tilted>0</tilted></_>
    <_>
      <rects>
        <_>
          10 17 4 6 -1.</_>
        <_>
          10 20 4 3 2.</_></rects>
      <tilted>0</tilted></_>
    <_>
      <rects>
        <_>
          10 18 12 4 -1.</_>
        <_>
          10 18 6 2 2.</_>
        <_>
          16 20 6 2 2.</_></rects>
      <tilted>0</tilted></_>
    <_>
      <rects>
        <_>
          11 1 10 6 -1.</_>
        <_>
          11 1 5 3 2.</_>
        <_>
          16 4 5 3 2.</_></rects>
      <tilted>0</tilted></_>
    <_>
      <rects>
        <_>
          11 6 5 16 -1.</_>
        <_>
          11 14 5 8 2.</_></rects>
      <tilted>0</tilted></_>
    <_>
      <rects>
        <_>
          11 8 4 5 -1.</_>
        <_>
          13 8 2 5 2.</_></rects>
      <tilted>0</tilted></_>
    <_>
      <rects>
        <_>
          12 12 6 3 -1.</_>
        <_>
          14 12 2 3 3.</_></rects>
      <tilted>0</tilted></_>
    <_>
      <rects>
        <_>
          12 12 2 10 -1.</_>
        <_>
          12 17 2 5 2.</_></rects>
      <tilted>0</tilted></_>
    <_>
      <rects>
        <_>
          15 4 6 16 -1.</_>
        <_>
          17 4 2 16 3.</_></rects>
      <tilted>0</tilted></_></features></cascade>
</opencv_storage>
