<?xml version="1.0"?>
<opencv_storage>
<cascade>
  <stageType>BOOST</stageType>
  <featureType>HAAR</featureType>
  <height>20</height>
  <width>20</width>
  <stageParams>
    <boostType>GAB</boostType>
    <minHitRate>9.9500000476837158e-01</minHitRate>
    <maxFalseAlarm>5.0000000000000000e-01</maxFalseAlarm>
    <weightTrimRate>9.4999999999999996e-01</weightTrimRate>
    <maxDepth>1</maxDepth>
    <maxWeakCount>100</maxWeakCount></stageParams>
  <featureParams>
    <maxCatCount>0</maxCatCount>
    <featSize>1</featSize>
    <mode>BASIC</mode></featureParams>
  <stageNum>10</stageNum>
  <stages>
    <!-- stage 0 -->
    <_>
      <maxWeakCount>5</maxWeakCount>
      <stageThreshold>-7.3035210371017456e-01</stageThreshold>
      <weakClassifiers>
        <_>
          <internalNodes>
            0 -1 62 5.6166583672165871e-03</internalNodes>
          <leafValues>
            -5.8048778772354126e-01 8.0759495496749878e-01</leafValues></_>
        <_>
          <internalNodes>
            0 -1 41 4.0232380852103233e-03</internalNodes>
          <leafValues>
            -7.9606729745864868e-01 6.5458559989929199e-01</leafValues></_>
        <_>
          <internalNodes>
            0 -1 70 -7.8746024519205093e-03</internalNodes>
          <leafValues>
            7.1655923128128052e-01 -5.4423332214355469e-01</leafValues></_>
        <_>
          <internalNodes>
            0 -1 78 -1.9063871586695313e-03</internalNodes>
          <leafValues>
            6.3324177265167236e-01 -5.2059078216552734e-01</leafValues></_>
        <_>
          <internalNodes>
            0 -1 56 3.2509979791939259e-03</internalNodes>
          <leafValues>
            -6.5557479858398438e-01 4.5023450255393982e-01</leafValues></_></weakClassifiers></_>
    <!-- stage 1 -->
    <_>
      <maxWeakCount>6</maxWeakCount>
      <stageThreshold>-8.3065474033355713e-01</stageThreshold>
      <weakClassifiers>
        <_>
          <internalNodes>
            0 -1 62 1.1646777391433716e-02</internalNodes>
          <leafValues>
            -3.8853502273559570e-01 7.9972565174102783e-01</leafValues></_>
        <_>
          <internalNodes>
            0 -1 29 -1.6825951170176268e-03</internalNodes>
          <leafValues>
            5.7212620973587036e-01 -5.3430223464965820e-01</leafValues></_>
        <_>
          <internalNodes>
            0 -1 71 -1.8569009844213724e-03</internalNodes>
          <leafValues>
            5.1315701007843018e-01 -5.0305551290512085e-01</leafValues></_>
        <_>
          <internalNodes>
            0 -1 66 -1.6814176924526691e-03</internalNodes>
          <leafValues>
            5.9563153982162476e-01 -4.2914807796478271e-01</leafValues></_>
        <_>
          <internalNodes>
            0 -1 35 1.2568389996886253e-02</internalNodes>
          <leafValues>
            -4.6691486239433289e-01 5.4987043142318726e-01</leafValues></_>
        <_>
          <internalNodes>
            0 -1 52 1.5372946858406067e-02</internalNodes>
          <leafValues>
            -3.9278200268745422e-01 4.7508844733238220e-01</leafValues></_></weakClassifiers></_>
    <!-- stage 2 -->
    <_>
      <maxWeakCount>9</maxWeakCount>
      <stageThreshold>-7.7247124910354614e-01</stageThreshold>
      <weakClassifiers>
        <_>
          <internalNodes>
            0 -1 62 1.4423092827200890e-02</internalNodes>
          <leafValues>
            -2.7416172623634338e-01 7.7777779102325439e-01</leafValues></_>
        <_>
          <internalNodes>
            0 -1 19 1.1919492855668068e-02</internalNodes>
          <leafValues>
            -2.4896915256977081e-01 7.4145525693893433e-01</leafValues></_>
        <_>
          <internalNodes>
            0 -1 81 8.5569912334904075e-04</internalNodes>
          <leafValues>
            -4.0533462166786194e-01 4.9269908666610718e-01</leafValues></_>
        <_>
          <internalNodes>
            0 -1 38 -1.6651753336191177e-02</internalNodes>
          <leafValues>
            3.2212498784065247e-01 -5.4791814088821411e-01</leafValues></_>
        <_>
          <internalNodes>
            0 -1 27 4.0707397274672985e-03</internalNodes>
          <leafValues>
            -2.6570934057235718e-01 7.2963505983352661e-01</leafValues></_>
        <_>
          <internalNodes>
            0 -1 48 -1.8151361495256424e-02</internalNodes>
          <leafValues>
            5.9416675567626953e-01 -2.4346277117729187e-01</leafValues></_>
        <_>
          <internalNodes>
            0 -1 77 -1.3280147686600685e-03</internalNodes>
          <leafValues>
            4.2731508612632751e-01 -3.8270714879035950e-01</leafValues></_>
        <_>
          <internalNodes>
            0 -1 63 3.5063093528151512e-03</internalNodes>
          <leafValues>
            -2.5084432959556580e-01 6.2247318029403687e-01</leafValues></_>
        <_>
          <internalNodes>
            0 -1 15 -2.0939275622367859e-02</internalNodes>
          <leafValues>
            -8.3013737201690674e-01 1.6657064855098724e-01</leafValues></_></weakClassifiers></_>
    <!-- stage 3 -->
    <_>
      <maxWeakCount>10</maxWeakCount>
      <stageThreshold>-1.0943738222122192e+00</stageThreshold>
      <weakClassifiers>
        <_>
          <internalNodes>
            0 -1 22 5.9076476842164993e-02</internalNodes>
          <leafValues>
            -2.1553398668766022e-01 7.4598538875579834e-01</leafValues></_>
        <_>
          <internalNodes>
            0 -1 75 3.3156774006783962e-03</internalNodes>
          <leafValues>
            -3.2126134634017944e-01 6.0557955503463745e-01</leafValues></_>
        <_>
          <internalNodes>
            0 -1 68 2.6158471591770649e-03</internalNodes>
          <leafValues>
            -4.2302486300468445e-01 4.6769437193870544e-01</leafValues></_>
        <_>
          <internalNodes>
            0 -1 23 -6.6748978570103645e-03</internalNodes>
          <leafValues>
            2.8554499149322510e-01 -5.5647772550582886e-01</leafValues></_>
        <_>
          <internalNodes>
            0 -1 60 6.8386688828468323e-02</internalNodes>
          <leafValues>
            -2.7250134944915771e-01 6.0555189847946167e-01</leafValues></_>
        <_>
          <internalNodes>
            0 -1 36 -3.8340215105563402e-03</internalNodes>
          <leafValues>
            5.9155565500259399e-01 -2.9771238565444946e-01</leafValues></_>
        <_>
          <internalNodes>
            0 -1 46 -1.0516768321394920e-02</internalNodes>
          <leafValues>
            -7.9827994108200073e-01 1.7906053364276886e-01</leafValues></_>
        <_>
          <internalNodes>
            0 -1 89 2.8404192999005318e-03</internalNodes>
          <leafValues>
            2.6373890042304993e-01 -5.0459140539169312e-01</leafValues></_>
        <_>
          <internalNodes>
            0 -1 9 3.3203780651092529e-02</internalNodes>
          <leafValues>
            -2.1000683307647705e-01 6.7295157909393311e-01</leafValues></_>
        <_>
          <internalNodes>
            0 -1 45 1.5836302191019058e-03</internalNodes>
          <leafValues>
            -1.9240044057369232e-01 6.6246682405471802e-01</leafValues></_></weakClassifiers></_>
    <!-- stage 4 -->
    <_>
      <maxWeakCount>9</maxWeakCount>
      <stageThreshold>-6.2516152858734131e-01</stageThreshold>
      <weakClassifiers>
        <_>
          <internalNodes>
            0 -1 62 2.2524628788232803e-02</internalNodes>
          <leafValues>
            -5.1805336028337479e-02 7.6909410953521729e-01</leafValues></_>
        <_>
          <internalNodes>
            0 -1 20 5.1261885091662407e-03</internalNodes>
          <leafValues>
            -2.8616490960121155e-01 5.1296889781951904e-01</leafValues></_>
        <_>
          <internalNodes>
            0 -1 55 -6.7974824924021959e-04</internalNodes>
          <leafValues>
            -7.1686285734176636e-01 2.1363602578639984e-01</leafValues></_>
        <_>
          <internalNodes>
            0 -1 65 -7.3492571711540222e-02</internalNodes>
          <leafValues>
            5.3165471553802490e-01 -2.7676126360893250e-01</leafValues></_>
        <_>
          <internalNodes>
            0 -1 57 -2.9754277784377337e-03</internalNodes>
          <leafValues>
            3.0767384171485901e-01 -4.0162256360054016e-01</leafValues></_>
        <_>
          <internalNodes>
            0 -1 87 -2.2422573529183865e-03</internalNodes>
          <leafValues>
            -6.9087034463882446e-01 1.8486197292804718e-01</leafValues></_>
        <_>
          <internalNodes>
            0 -1 7 -5.3997745271772146e-04</internalNodes>
          <leafValues>
            -4.4024050235748291e-01 2.4800087511539459e-01</leafValues></_>
        <_>
          <internalNodes>
            0 -1 1 3.0700014904141426e-03</internalNodes>
          <leafValues>
            2.2151438891887665e-01 -5.3970676660537720e-01</leafValues></_>
        <_>
          <internalNodes>
            0 -1 83 7.9861405538395047e-04</internalNodes>
          <leafValues>
            -4.0022224187850952e-01 2.9379922151565552e-01</leafValues></_></weakClassifiers></_>
    <!-- stage 5 -->
    <_>
      <maxWeakCount>10</maxWeakCount>
      <stageThreshold>-8.3174872398376465e-01</stageThreshold>
      <weakClassifiers>
        <_>
          <internalNodes>
            0 -1 76 -2.3885592818260193e-02</internalNodes>
          <leafValues>
            7.3643410205841064e-01 -1.3513512909412384e-01</leafValues></_>
        <_>
          <internalNodes>
            0 -1 43 2.9055951163172722e-03</internalNodes>
          <leafValues>
            2.5513175129890442e-01 -8.8684093952178955e-01</leafValues></_>
        <_>
          <internalNodes>
            0 -1 44 3.0987299978733063e-03</internalNodes>
          <leafValues>
            -2.3115944862365723e-01 7.5982451438903809e-01</leafValues></_>
        <_>
          <internalNodes>
            0 -1 79 -2.1978481672704220e-03</internalNodes>
          <leafValues>
            4.3023055791854858e-01 -3.8044840097427368e-01</leafValues></_>
        <_>
          <internalNodes>
            0 -1 0 1.8133763223886490e-03</internalNodes>
          <leafValues>
            2.5679913163185120e-01 -5.4018604755401611e-01</leafValues></_>
        <_>
          <internalNodes>
            0 -1 47 3.1058392487466335e-03</internalNodes>
          <leafValues>
            -2.4735338985919952e-01 6.7377811670303345e-01</leafValues></_>
        <_>
          <internalNodes>
            0 -1 40 9.8638702183961868e-04</internalNodes>
          <leafValues>
            -6.9552314281463623e-01 2.3302988708019257e-01</leafValues></_>
        <_>
          <internalNodes>
            0 -1 31 4.3529970571398735e-03</internalNodes>
          <leafValues>
            -2.2491320967674255e-01 7.3884761333465576e-01</leafValues></_>
        <_>
          <internalNodes>
            0 -1 84 2.1799148817081004e-04</internalNodes>
          <leafValues>
            2.8095647692680359e-01 -4.4825813174247742e-01</leafValues></_>
        <_>
          <internalNodes>
            0 -1 26 7.4566598050296307e-03</internalNodes>
          <leafValues>
            1.5832877159118652e-01 -7.8898078203201294e-01</leafValues></_></weakClassifiers></_>
    <!-- stage 6 -->
    <_>
      <maxWeakCount>14</maxWeakCount>
      <stageThreshold>-8.2468092441558838e-01</stageThreshold>
      <weakClassifiers>
        <_>
          <internalNodes>
            0 -1 11 1.6580148041248322e-01</internalNodes>
          <leafValues>
            -2.2038567811250687e-02 8.7763714790344238e-01</leafValues></_>
        <_>
          <internalNodes>
            0 -1 30 -5.9890619013458490e-05</internalNodes>
          <leafValues>
            3.7258920073509216e-01 -4.4474059343338013e-01</leafValues></_>
        <_>
          <internalNodes>
            0 -1 72 -4.0930270915850997e-04</internalNodes>
          <leafValues>
            2.9663029313087463e-01 -5.2958738803863525e-01</leafValues></_>
        <_>
          <internalNodes>
            0 -1 80 2.2778883576393127e-03</internalNodes>
          <leafValues>
            -3.8622713088989258e-01 3.5925984382629395e-01</leafValues></_>
        <_>
          <internalNodes>
            0 -1 93 -3.4635495394468307e-03</internalNodes>
          <leafValues>
            -6.1144065856933594e-01 1.5547220408916473e-01</leafValues></_>
        <_>
          <internalNodes>
            0 -1 16 -8.6919311434030533e-03</internalNodes>
          <leafValues>
            -5.7891052961349487e-01 2.0644506812095642e-01</leafValues></_>
        <_>
          <internalNodes>
            0 -1 64 -1.4311804436147213e-02</internalNodes>
          <leafValues>
            5.5674552917480469e-01 -2.3199748992919922e-01</leafValues></_>
        <_>
          <internalNodes>
            0 -1 37 -4.2411950416862965e-03</internalNodes>
          <leafValues>
            5.0329434871673584e-01 -2.8836598992347717e-01</leafValues></_>
        <_>
          <internalNodes>
            0 -1 91 -4.4702496379613876e-03</internalNodes>
          <leafValues>
            -6.3951092958450317e-01 1.9329507648944855e-01</leafValues></_>
        <_>
          <internalNodes>
            0 -1 47 2.8595975600183010e-03</internalNodes>
          <leafValues>
            -1.9562146067619324e-01 6.0824239253997803e-01</leafValues></_>
        <_>
          <internalNodes>
            0 -1 25 5.0610001198947430e-04</internalNodes>
          <leafValues>
            -3.0533656477928162e-01 3.8939291238784790e-01</leafValues></_>
        <_>
          <internalNodes>
            0 -1 74 -3.4584174863994122e-03</internalNodes>
          <leafValues>
            -5.7183074951171875e-01 1.9454671442508698e-01</leafValues></_>
        <_>
          <internalNodes>
            0 -1 51 7.4804043397307396e-03</internalNodes>
          <leafValues>
            -1.5570017695426941e-01 6.9021385908126831e-01</leafValues></_>
        <_>
          <internalNodes>
            0 -1 90 8.6368143092840910e-04</internalNodes>
          <leafValues>
            2.5847166776657104e-01 -3.9751145243644714e-01</leafValues></_></weakClassifiers></_>
    <!-- stage 7 -->
    <_>
      <maxWeakCount>14</maxWeakCount>
      <stageThreshold>-8.3479845523834229e-01</stageThreshold>
      <weakClassifiers>
        <_>
          <internalNodes>
            0 -1 3 1.1050522327423096e-01</internalNodes>
          <leafValues>
            -1.7142856493592262e-02 8.2400000095367432e-01</leafValues></_>
        <_>
          <internalNodes>
            0 -1 41 1.0184815153479576e-02</internalNodes>
          <leafValues>
            -4.1021174192428589e-01 3.6245447397232056e-01</leafValues></_>
        <_>
          <internalNodes>
            0 -1 67 -2.0436032209545374e-03</internalNodes>
          <leafValues>
            4.1346779465675354e-01 -2.6650446653366089e-01</leafValues></_>
        <_>
          <internalNodes>
            0 -1 2 -1.1205711634829640e-03</internalNodes>
          <leafValues>
            -5.4843348264694214e-01 1.6976197063922882e-01</leafValues></_>
        <_>
          <internalNodes>
            0 -1 4 4.0547005832195282e-02</internalNodes>
          <leafValues>
            -1.5144036710262299e-01 7.2732996940612793e-01</leafValues></_>
        <_>
          <internalNodes>
            0 -1 14 -2.9674195684492588e-03</internalNodes>
          <leafValues>
            4.1522020101547241e-01 -2.8387674689292908e-01</leafValues></_>
        <_>
          <internalNodes>
            0 -1 13 9.8448619246482849e-04</internalNodes>
          <leafValues>
            2.0643077790737152e-01 -5.8404535055160522e-01</leafValues></_>
        <_>
          <internalNodes>
            0 -1 18 1.4745814725756645e-02</internalNodes>
          <leafValues>
            8.8879868388175964e-02 -8.4819936752319336e-01</leafValues></_>
        <_>
          <internalNodes>
            0 -1 54 -3.5226070322096348e-03</internalNodes>
          <leafValues>
            3.4340083599090576e-01 -2.9186022281646729e-01</leafValues></_>
        <_>
          <internalNodes>
            0 -1 88 4.1703972965478897e-03</internalNodes>
          <leafValues>
            2.1882188320159912e-01 -4.8278513550758362e-01</leafValues></_>
        <_>
          <internalNodes>
            0 -1 73 -5.4920738330110908e-04</internalNodes>
          <leafValues>
            -5.3954195976257324e-01 1.9608582556247711e-01</leafValues></_>
        <_>
          <internalNodes>
            0 -1 59 -5.3011043928563595e-04</internalNodes>
          <leafValues>
            2.0499862730503082e-01 -5.6444615125656128e-01</leafValues></_>
        <_>
          <internalNodes>
            0 -1 34 6.0280020989011973e-05</internalNodes>
          <leafValues>
            -3.7950459122657776e-01 2.5921189785003662e-01</leafValues></_>
        <_>
          <internalNodes>
            0 -1 6 -2.2316807880997658e-03</internalNodes>
          <leafValues>
            -4.9882361292839050e-01 1.9845883548259735e-01</leafValues></_></weakClassifiers></_>
    <!-- stage 8 -->
    <_>
      <maxWeakCount>10</maxWeakCount>
      <stageThreshold>-5.9813767671585083e-01</stageThreshold>
      <weakClassifiers>
        <_>
          <internalNodes>
            0 -1 61 1.2123404443264008e-01</internalNodes>
          <leafValues>
            3.1292516738176346e-02 8.1075268983840942e-01</leafValues></_>
        <_>
          <internalNodes>
            0 -1 42 2.2197200451046228e-03</internalNodes>
          <leafValues>
            2.3306821286678314e-01 -7.9480707645416260e-01</leafValues></_>
        <_>
          <internalNodes>
            0 -1 32 5.8272287249565125e-02</internalNodes>
          <leafValues>
            -2.5750720500946045e-01 5.0353378057479858e-01</leafValues></_>
        <_>
          <internalNodes>
            0 -1 86 -1.4094493817538023e-03</internalNodes>
          <leafValues>
            -6.4178287982940674e-01 2.1728926897048950e-01</leafValues></_>
        <_>
          <internalNodes>
            0 -1 82 -9.3287526397034526e-05</internalNodes>
          <leafValues>
            2.0351572334766388e-01 -5.6338584423065186e-01</leafValues></_>
        <_>
          <internalNodes>
            0 -1 5 -1.7309216782450676e-03</internalNodes>
          <leafValues>
            -6.2225908041000366e-01 2.1202865242958069e-01</leafValues></_>
        <_>
          <internalNodes>
            0 -1 39 -1.4323199866339564e-03</internalNodes>
          <leafValues>
            2.2887535393238068e-01 -5.1900982856750488e-01</leafValues></_>
        <_>
          <internalNodes>
            0 -1 8 3.0087223276495934e-03</internalNodes>
          <leafValues>
            1.6521017253398895e-01 -7.1596151590347290e-01</leafValues></_>
        <_>
          <internalNodes>
            0 -1 17 -1.4487099833786488e-02</internalNodes>
          <leafValues>
            -8.1849443912506104e-01 1.0852468013763428e-01</leafValues></_>
        <_>
          <internalNodes>
            0 -1 85 -1.1295177042484283e-02</internalNodes>
          <leafValues>
            -5.6613689661026001e-01 1.7447252571582794e-01</leafValues></_></weakClassifiers></_>
    <!-- stage 9 -->
    <_>
      <maxWeakCount>15</maxWeakCount>
      <stageThreshold>-1.0959377288818359e+00</stageThreshold>
      <weakClassifiers>
        <_>
          <internalNodes>
            0 -1 50 2.7094993740320206e-02</internalNodes>
          <leafValues>
            5.2023120224475861e-02 7.1653544902801514e-01</leafValues></_>
        <_>
          <internalNodes>
            0 -1 28 6.6290339455008507e-03</internalNodes>
          <leafValues>
            -1.7254360020160675e-01 6.0504931211471558e-01</leafValues></_>
        <_>
          <internalNodes>
            0 -1 10 -7.4890593532472849e-04</internalNodes>
          <leafValues>
            -4.9863857030868530e-01 2.4519093334674835e-01</leafValues></_>
        <_>
          <internalNodes>
            0 -1 69 2.7375416830182076e-02</internalNodes>
          <leafValues>
            -2.5020200014114380e-01 4.7445461153984070e-01</leafValues></_>
        <_>
          <internalNodes>
            0 -1 33 6.7644221708178520e-03</internalNodes>
          <leafValues>
            -3.1553703546524048e-01 3.8357651233673096e-01</leafValues></_>
        <_>
          <internalNodes>
            0 -1 94 1.0794724803417921e-03</internalNodes>
          <leafValues>
            1.7420025169849396e-01 -5.4803276062011719e-01</leafValues></_>
        <_>
          <internalNodes>
            0 -1 95 -3.7295770016498864e-04</internalNodes>
          <leafValues>
            -4.8028463125228882e-01 2.4989980459213257e-01</leafValues></_>
        <_>
          <internalNodes>
            0 -1 24 8.1015694886445999e-03</internalNodes>
          <leafValues>
            1.2995757162570953e-01 -8.4701460599899292e-01</leafValues></_>
        <_>
          <internalNodes>
            0 -1 21 -3.0158855952322483e-03</internalNodes>
          <leafValues>
            3.5458043217658997e-01 -3.0146035552024841e-01</leafValues></_>
        <_>
          <internalNodes>
            0 -1 53 -4.5440429821610451e-03</internalNodes>
          <leafValues>
            6.3070583343505859e-01 -1.8351639807224274e-01</leafValues></_>
        <_>
          <internalNodes>
            0 -1 12 3.4420296549797058e-02</internalNodes>
          <leafValues>
            -1.6356559097766876e-01 5.8203792572021484e-01</leafValues></_>
        <_>
          <internalNodes>
            0 -1 58 -2.3907297290861607e-03</internalNodes>
          <leafValues>
            -9.6618366241455078e-01 1.2379431724548340e-01</leafValues></_>
        <_>
          <internalNodes>
            0 -1 49 1.3344865292310715e-03</internalNodes>
          <leafValues>
            1.9224821031093597e-01 -4.8720952868461609e-01</leafValues></_>
        <_>
          <internalNodes>
            0 -1 77 -1.5438466798514128e-03</internalNodes>
          <leafValues>
            2.8212735056877136e-01 -3.6075165867805481e-01</leafValues></_>
        <_>
          <internalNodes>
            0 -1 92 1.2473521055653691e-03</internalNodes>
          <leafValues>
            1.6135883331298828e-01 -5.5958443880081177e-01</leafValues></_></weakClassifiers></_></stages>
  <features>
    <_>
      <rects>
        <_>
          1 0 2 8 -1.</_>
        <_>
          1 0 1 4 2.</_>
        <_>
          2 4 1 4 2.</_></rects>
      <tilted>0</tilted></_>
    <_>
      <rects>
        <_>
          1 4 2 10 -1.</_>
        <_>
          1 4 1 5 2.</_>
        <_>
          2 9 1 5 2.</_></rects>
      <tilted>0</tilted></_>
    <_>
      <rects>
        <_>
          1 6 2 4 -1.</_>
        <_>
          1 6 1 2 2.</_>
        <_>
          2 8 1 2 2.</_></rects>
      <tilted>0</tilted></_>
    <_>
      <rects>
        <_>
          1 7 18 3 -1.</_>
        <_>
          7 7 6 3 3.</_></rects>
      <tilted>0</tilted></_>
    <_>
      <rects>
        <_>
          1 11 18 1 -1.</_>
        <_>
          7 11 6 1 3.</_></rects>
      <tilted>0</tilted></_>
    <_>
      <rects>
        <_>
          1 12 2 2 -1.</_>
        <_>
          2 12 1 2 2.</_></rects>
      <tilted>0</tilted></_>
    <_>
      <rects>
        <_>
          2 0 2 7 -1.</_>
        <_>
          3 0 1 7 2.</_></rects>
      <tilted>0</tilted></_>
    <_>
      <rects>
        <_>
          2 2 3 2 -1.</_>
        <_>
          2 3 3 1 2.</_></rects>
      <tilted>0</tilted></_>
    <_>
      <rects>
        <_>
          2 8 2 4 -1.</_>
        <_>
          2 8 1 2 2.</_>
        <_>
          3 10 1 2 2.</_></rects>
      <tilted>0</tilted></_>
    <_>
      <rects>
        <_>
          2 8 10 2 -1.</_>
        <_>
          7 8 5 2 2.</_></rects>
      <tilted>0</tilted></_>
    <_>
      <rects>
        <_>
          3 0 3 1 -1.</_>
        <_>
          4 0 1 1 3.</_></rects>
      <tilted>0</tilted></_>
    <_>
      <rects>
        <_>
          3 7 15 6 -1.</_>
        <_>
          8 7 5 6 3.</_></rects>
      <tilted>0</tilted></_>
    <_>
      <rects>
        <_>
          3 8 6 8 -1.</_>
        <_>
          6 8 3 8 2.</_></rects>
      <tilted>0</tilted></_>
    <_>
      <rects>
        <_>
          4 10 2 1 -1.</_>
        <_>
          5 10 1 1 2.</_></rects>
      <tilted>0</tilted></_>
    <_>
      <rects>
        <_>
          5 7 6 2 -1.</_>
        <_>
          5 7 3 1 2.</_>
        <_>
          8 8 3 1 2.</_></rects>
      <tilted>0</tilted></_>
    <_>
      <rects>
        <_>
          5 8 4 6 -1.</_>
        <_>
          5 10 4 2 3.</_></rects>
      <tilted>0</tilted></_>
    <_>
      <rects>
        <_>
          5 9 7 6 -1.</_>
        <_>
          5 11 7 2 3.</_></rects>
      <tilted>0</tilted></_>
    <_>
      <rects>
        <_>
          6 8 4 6 -1.</_>
        <_>
          6 10 4 2 3.</_></rects>
      <tilted>0</tilted></_>
    <_>
      <rects>
        <_>
          6 9 8 4 -1.</_>
        <_>
          6 11 8 2 2.</_></rects>
      <tilted>0</tilted></_>
    <_>
      <rects>
        <_>
          6 12 9 1 -1.</_>
        <_>
          9 12 3 1 3.</_></rects>
      <tilted>0</tilted></_>
    <_>
      <rects>
        <_>
          7 7 2 6 -1.</_>
        <_>
          7 9 2 2 3.</_></rects>
      <tilted>0</tilted></_>
    <_>
      <rects>
        <_>
          7 7 3 3 -1.</_>
        <_>
          7 8 3 1 3.</_></rects>
      <tilted>0</tilted></_>
    <_>
      <rects>
        <_>
          7 7 9 6 -1.</_>
        <_>
          10 7 3 6 3.</_></rects>
      <tilted>0</tilted></_>
    <_>
      <rects>
        <_>
          7 7 5 6 -1.</_>
        <_>
          7 10 5 3 2.</_></rects>
      <tilted>0</tilted></_>
    <_>
      <rects>
        <_>
          7 8 7 6 -1.</_>
        <_>
          7 11 7 3 2.</_></rects>
      <tilted>0</tilted></_>
    <_>
      <rects>
        <_>
          7 9 2 2 -1.</_>
        <_>
          7 10 2 1 2.</_></rects>
      <tilted>0</tilted></_>
    <_>
      <rects>
        <_>
          7 9 4 2 -1.</_>
        <_>
          9 9 2 2 2.</_></rects>
      <tilted>0</tilted></_>
    <_>
      <rects>
        <_>
          7 10 2 4 -1.</_>
        <_>
          7 10 1 2 2.</_>
        <_>
          8 12 1 2 2.</_></rects>
      <tilted>0</tilted></_>
    <_>
      <rects>
        <_>
          7 10 4 2 -1.</_>
        <_>
          7 10 2 1 2.</_>
        <_>
          9 11 2 1 2.</_></rects>
      <tilted>0</tilted></_>
    <_>
      <rects>
        <_>
          7 10 2 4 -1.</_>
        <_>
          7 12 2 2 2.</_></rects>
      <tilted>0</tilted></_>
    <_>
      <rects>
        <_>
          7 10 2 6 -1.</_>
        <_>
          7 12 2 2 3.</_></rects>
      <tilted>0</tilted></_>
    <_>
      <rects>
        <_>
          7 11 3 2 -1.</_>
        <_>
          8 11 1 2 3.</_></rects>
      <tilted>0</tilted></_>
    <_>
      <rects>
        <_>
          7 11 9 6 -1.</_>
        <_>
          10 11 3 6 3.</_></rects>
      <tilted>0</tilted></_>
    <_>
      <rects>
        <_>
          7 12 4 2 -1.</_>
        <_>
          9 12 2 2 2.</_></rects>
      <tilted>0</tilted></_>
    <_>
      <rects>
        <_>
          8 0 2 8 -1.</_>
        <_>
          8 4 2 4 2.</_></rects>
      <tilted>0</tilted></_>
    <_>
      <rects>
        <_>
          8 5 6 6 -1.</_>
        <_>
          8 5 3 3 2.</_>
        <_>
          11 8 3 3 2.</_></rects>
      <tilted>0</tilted></_>
    <_>
      <rects>
        <_>
          8 7 2 3 -1.</_>
        <_>
          8 8 2 1 3.</_></rects>
      <tilted>0</tilted></_>
    <_>
      <rects>
        <_>
          8 7 3 3 -1.</_>
        <_>
          8 8 3 1 3.</_></rects>
      <tilted>0</tilted></_>
    <_>
      <rects>
        <_>
          8 7 5 10 -1.</_>
        <_>
          8 12 5 5 2.</_></rects>
      <tilted>0</tilted></_>
    <_>
      <rects>
        <_>
          8 7 7 4 -1.</_>
        <_>
          8 9 7 2 2.</_></rects>
      <tilted>0</tilted></_>
    <_>
      <rects>
        <_>
          8 8 4 4 -1.</_>
        <_>
          10 8 2 4 2.</_></rects>
      <tilted>0</tilted></_>
    <_>
      <rects>
        <_>
          8 8 4 5 -1.</_>
        <_>
          10 8 2 5 2.</_></rects>
      <tilted>0</tilted></_>
    <_>
      <rects>
        <_>
          8 8 3 4 -1.</_>
        <_>
          8 10 3 2 2.</_></rects>
      <tilted>0</tilted></_>
    <_>
      <rects>
        <_>
          8 8 4 4 -1.</_>
        <_>
          8 10 4 2 2.</_></rects>
      <tilted>0</tilted></_>
    <_>
      <rects>
        <_>
          8 9 1 3 -1.</_>
        <_>
          8 10 1 1 3.</_></rects>
      <tilted>0</tilted></_>
    <_>
      <rects>
        <_>
          8 9 2 2 -1.</_>
        <_>
          8 9 1 1 2.</_>
        <_>
          9 10 1 1 2.</_></rects>
      <tilted>0</tilted></_>
    <_>
      <rects>
        <_>
          8 9 4 4 -1.</_>
        <_>
          8 11 4 2 2.</_></rects>
      <tilted>0</tilted></_>
    <_>
      <rects>
        <_>
          8 11 3 1 -1.</_>
        <_>
          9 11 1 1 3.</_></rects>
      <tilted>0</tilted></_>
    <_>
      <rects>
        <_>
          8 12 6 8 -1.</_>
        <_>
          8 12 3 4 2.</_>
        <_>
          11 16 3 4 2.</_></rects>
      <tilted>0</tilted></_>
    <_>
      <rects>
        <_>
          9 2 4 1 -1.</_>
        <_>
          11 2 2 1 2.</_></rects>
      <tilted>0</tilted></_>
    <_>
      <rects>
        <_>
          9 5 4 4 -1.</_>
        <_>
          9 7 4 2 2.</_></rects>
      <tilted>0</tilted></_>
    <_>
      <rects>
        <_>
          9 6 4 2 -1.</_>
        <_>
          9 6 2 1 2.</_>
        <_>
          11 7 2 1 2.</_></rects>
      <tilted>0</tilted></_>
    <_>
      <rects>
        <_>
          9 7 6 5 -1.</_>
        <_>
          11 7 2 5 3.</_></rects>
      <tilted>0</tilted></_>
    <_>
      <rects>
        <_>
          9 8 1 3 -1.</_>
        <_>
          9 9 1 1 3.</_></rects>
      <tilted>0</tilted></_>
    <_>
      <rects>
        <_>
          9 8 2 4 -1.</_>
        <_>
          9 8 1 2 2.</_>
        <_>
          10 10 1 2 2.</_></rects>
      <tilted>0</tilted></_>
    <_>
      <rects>
        <_>
          9 9 4 2 -1.</_>
        <_>
          11 9 2 2 2.</_></rects>
      <tilted>0</tilted></_>
    <_>
      <rects>
        <_>
          9 9 4 3 -1.</_>
        <_>
          11 9 2 3 2.</_></rects>
      <tilted>0</tilted></_>
    <_>
      <rects>
        <_>
          9 9 5 3 -1.</_>
        <_>
          9 10 5 1 3.</_></rects>
      <tilted>0</tilted></_>
    <_>
      <rects>
        <_>
          9 10 4 1 -1.</_>
        <_>
          11 10 2 1 2.</_></rects>
      <tilted>0</tilted></_>
    <_>
      <rects>
        <_>
          9 12 3 2 -1.</_>
        <_>
          9 13 3 1 2.</_></rects>
      <tilted>0</tilted></_>
    <_>
      <rects>
        <_>
          10 1 2 18 -1.</_>
        <_>
          10 7 2 6 3.</_></rects>
      <tilted>0</tilted></_>
    <_>
      <rects>
        <_>
          10 1 3 18 -1.</_>
        <_>
          10 7 3 6 3.</_></rects>
      <tilted>0</tilted></_>
    <_>
      <rects>
        <_>
          10 5 2 6 -1.</_>
        <_>
          10 7 2 2 3.</_></rects>
      <tilted>0</tilted></_>
    <_>
      <rects>
        <_>
          10 7 2 4 -1.</_>
        <_>
          10 7 1 2 2.</_>
        <_>
          11 9 1 2 2.</_></rects>
      <tilted>0</tilted></_>
    <_>
      <rects>
        <_>
          10 7 4 3 -1.</_>
        <_>
          12 7 2 3 2.</_></rects>
      <tilted>0</tilted></_>
    <_>
      <rects>
        <_>
          10 7 8 6 -1.</_>
        <_>
          14 7 4 6 2.</_></rects>
      <tilted>0</tilted></_>
    <_>
      <rects>
        <_>
          10 9 1 3 -1.</_>
        <_>
          10 10 1 1 3.</_></rects>
      <tilted>0</tilted></_>
    <_>
      <rects>
        <_>
          10 9 3 2 -1.</_>
        <_>
          11 9 1 2 3.</_></rects>
      <tilted>0</tilted></_>
    <_>
      <rects>
        <_>
          10 11 2 3 -1.</_>
        <_>
          10 12 2 1 3.</_></rects>
      <tilted>0</tilted></_>
    <_>
      <rects>
        <_>
          10 11 6 9 -1.</_>
        <_>
          12 11 2 9 3.</_></rects>
      <tilted>0</tilted></_>
    <_>
      <rects>
        <_>
          10 11 3 4 -1.</_>
        <_>
          10 13 3 2 2.</_></rects>
      <tilted>0</tilted></_>
    <_>
      <rects>
        <_>
          10 12 2 2 -1.</_>
        <_>
          10 13 2 1 2.</_></rects>
      <tilted>0</tilted></_>
    <_>
      <rects>
        <_>
          10 13 2 3 -1.</_>
        <_>
          10 14 2 1 3.</_></rects>
      <tilted>0</tilted></_>
    <_>
      <rects>
        <_>
          11 1 2 2 -1.</_>
        <_>
          11 1 1 1 2.</_>
        <_>
          12 2 1 1 2.</_></rects>
      <tilted>0</tilted></_>
    <_>
      <rects>
        <_>
          11 1 4 4 -1.</_>
        <_>
          11 1 2 2 2.</_>
        <_>
          13 3 2 2 2.</_></rects>
      <tilted>0</tilted></_>
    <_>
      <rects>
        <_>
          11 7 2 4 -1.</_>
        <_>
          11 7 1 2 2.</_>
        <_>
          12 9 1 2 2.</_></rects>
      <tilted>0</tilted></_>
    <_>
      <rects>
        <_>
          11 7 4 8 -1.</_>
        <_>
          13 7 2 8 2.</_></rects>
      <tilted>0</tilted></_>
    <_>
      <rects>
        <_>
          11 8 1 2 -1.</_>
        <_>
          11 9 1 1 2.</_></rects>
      <tilted>0</tilted></_>
    <_>
      <rects>
        <_>
          11 8 4 1 -1.</_>
        <_>
          13 8 2 1 2.</_></rects>
      <tilted>0</tilted></_>
    <_>
      <rects>
        <_>
          11 9 1 3 -1.</_>
        <_>
          11 10 1 1 3.</_></rects>
      <tilted>0</tilted></_>
    <_>
      <rects>
        <_>
          11 9 2 3 -1.</_>
        <_>
          12 9 1 3 2.</_></rects>
      <tilted>0</tilted></_>
    <_>
      <rects>
        <_>
          11 10 2 1 -1.</_>
        <_>
          12 10 1 1 2.</_></rects>
      <tilted>0</tilted></_>
    <_>
      <rects>
        <_>
          11 10 2 2 -1.</_>
        <_>
          11 10 1 1 2.</_>
        <_>
          12 11 1 1 2.</_></rects>
      <tilted>0</tilted></_>
    <_>
      <rects>
        <_>
          11 12 2 4 -1.</_>
        <_>
          11 12 1 2 2.</_>
        <_>
          12 14 1 2 2.</_></rects>
      <tilted>0</tilted></_>
    <_>
      <rects>
        <_>
          13 1 2 1 -1.</_>
        <_>
          14 1 1 1 2.</_></rects>
      <tilted>0</tilted></_>
    <_>
      <rects>
        <_>
          13 15 6 5 -1.</_>
        <_>
          15 15 2 5 3.</_></rects>
      <tilted>0</tilted></_>
    <_>
      <rects>
        <_>
          14 2 3 1 -1.</_>
        <_>
          15 2 1 1 3.</_></rects>
      <tilted>0</tilted></_>
    <_>
      <rects>
        <_>
          14 2 2 4 -1.</_>
        <_>
          14 2 1 2 2.</_>
        <_>
          15 4 1 2 2.</_></rects>
      <tilted>0</tilted></_>
    <_>
      <rects>
        <_>
          14 9 2 10 -1.</_>
        <_>
          14 9 1 5 2.</_>
        <_>
          15 14 1 5 2.</_></rects>
      <tilted>0</tilted></_>
    <_>
      <rects>
        <_>
          14 14 4 5 -1.</_>
        <_>
          16 14 2 5 2.</_></rects>
      <tilted>0</tilted></_>
    <_>
      <rects>
        <_>
          14 19 4 1 -1.</_>
        <_>
          16 19 2 1 2.</_></rects>
      <tilted>0</tilted></_>
    <_>
      <rects>
        <_>
          15 11 2 8 -1.</_>
        <_>
          15 11 1 4 2.</_>
        <_>
          16 15 1 4 2.</_></rects>
      <tilted>0</tilted></_>
    <_>
      <rects>
        <_>
          15 15 2 2 -1.</_>
        <_>
          16 15 1 2 2.</_></rects>
      <tilted>0</tilted></_>
    <_>
      <rects>
        <_>
          15 16 4 4 -1.</_>
        <_>
          15 16 2 2 2.</_>
        <_>
          17 18 2 2 2.</_></rects>
      <tilted>0</tilted></_>
    <_>
      <rects>
        <_>
          16 0 2 3 -1.</_>
        <_>
          17 0 1 3 2.</_></rects>
      <tilted>0</tilted></_>
    <_>
      <rects>
        <_>
          16 1 2 1 -1.</_>
        <_>
          17 1 1 1 2.</_></rects>
      <tilted>0</tilted></_></features></cascade>
</opencv_storage>
